given 罚 0.1176471
penalty 罚 0.0588235
impressed 罚 0.0588235
punished 罚 0.1176471
inserted 罚 0.0588235
recess 罚 0.0588235
to 罚 0.3529412
was 罚 0.1176471
VIPs 罚 0.0588235
NULL 废物堆 1.0000000
&quot; 节目组 1.0000000
a Village 1.0000000
fiber 铺开 0.1666667
newspaper 铺开 0.1666667
spreads 铺开 0.1666667
NULL 铺开 0.1666667
planet 铺开 0.1666667
quick 铺开 0.1666667
NULL 锅和卷 1.0000000
want 今天 0.0084349
you 今天 0.0004686
&apos;d 今天 0.0028116
, 今天 0.0014058
that 今天 0.0032802
echoes 今天 0.0004686
Century 今天 0.0004686
day 今天 0.0159325
won 今天 0.0018744
discuss 今天 0.0009372
talking 今天 0.0004686
what 今天 0.0506092
glamour 今天 0.0004686
subject 今天 0.0004686
reason 今天 0.0018744
tonight 今天 0.0014058
&apos;re 今天 0.0028116
afternoon 今天 0.0032802
but 今天 0.0014058
and 今天 0.0014058
with 今天 0.0004686
&apos;ve 今天 0.0004686
here 今天 0.0384255
discrepancy 今天 0.0004686
of 今天 0.0004686
later 今天 0.0004686
hope 今天 0.0014058
is 今天 0.0028116
we 今天 0.0070291
still 今天 0.0028116
utterly 今天 0.0004686
direction 今天 0.0004686
to 今天 0.0042174
going 今天 0.0140581
nowadays 今天 0.0032802
Sharmeen 今天 0.0004686
right 今天 0.0004686
today 今天 0.6049672
now 今天 0.0262418
talk 今天 0.0107779
the 今天 0.0060918
&apos;s 今天 0.0028116
would 今天 0.0009372
slash 今天 0.0004686
speaking 今天 0.0004686
like 今天 0.0046860
wouldn 今天 0.0004686
commandment 今天 0.0004686
essentialize 今天 0.0004686
about 今天 0.0018744
this 今天 0.0131209
so 今天 0.0112465
stand 今天 0.0014058
how 今天 0.0009372
Talk 今天 0.0018744
fully-fledged 今天 0.0004686
morning 今天 0.0192127
I 今天 0.0173383
Philippines 今天 0.0009372
NULL 今天 0.0538894
are 今天 0.0079663
focus 今天 0.0009372
check 今天 0.0004686
bring 今天 0.0004686
us 今天 0.0004686
theme 今天 0.0009372
Monday 今天 0.0009372
there 今天 0.0014058
&apos;m 今天 0.0238988
present 今天 0.0014058
present-day 今天 0.0014058
museum 展柜 1.0000000
uncertainty 变化无常 1.0000000
medal 别上 1.0000000
benches 塞有 1.0000000
NULL 湍流 1.0000000
Apu Apu 1.0000000
weapon 添 0.3333333
a 添 0.3333333
getting 添 0.3333333
procedures 细则 0.2000000
associated 细则 0.2000000
hurdles 细则 0.2000000
implementation 细则 0.2000000
regulatory 细则 0.2000000
NULL 合作© 1.0000000
made 以致 0.0625000
so 以致 0.5000000
therefore 以致 0.0625000
unable 以致 0.0625000
that 以致 0.3125000
1900 强国 0.0833333
nation 强国 0.1666667
the 强国 0.2500000
mover 强国 0.0833333
NULL 强国 0.1666667
super 强国 0.0833333
Near 强国 0.0833333
power 强国 0.0833333
affected 疾病 0.0022936
these 疾病 0.0011468
sickness 疾病 0.0045872
syndrome 疾病 0.0011468
that 疾病 0.0045872
disorders 疾病 0.0321101
on 疾病 0.0034404
illnesses 疾病 0.0206422
brain 疾病 0.0022936
cardiovascular 疾病 0.0022936
disease 疾病 0.3600917
disease-protective 疾病 0.0011468
people 疾病 0.0011468
diabetes-related 疾病 0.0011468
vaccine 疾病 0.0022936
epidemic 疾病 0.0057339
&apos;re 疾病 0.0034404
conditions 疾病 0.0068807
comparison 疾病 0.0011468
onset 疾病 0.0011468
symptoms 疾病 0.0011468
stem 疾病 0.0011468
of 疾病 0.0034404
burden 疾病 0.0022936
impairments 疾病 0.0011468
to 疾病 0.0022936
have 疾病 0.0011468
from 疾病 0.0022936
outbreak 疾病 0.0011468
illness 疾病 0.0837156
severe 疾病 0.0022936
it 疾病 0.0011468
progress 疾病 0.0011468
causes 疾病 0.0011468
deadly 疾病 0.0011468
health 疾病 0.0045872
things 疾病 0.0057339
fatal 疾病 0.0022936
more 疾病 0.0011468
the 疾病 0.0022936
debilitating 疾病 0.0045872
remedy 疾病 0.0011468
neurodegenerative 疾病 0.0011468
preconditions 疾病 0.0011468
medical 疾病 0.0011468
CDC 疾病 0.0080275
or 疾病 0.0011468
treating 疾病 0.0022936
pandemics 疾病 0.0022936
ailments 疾病 0.0045872
mentally 疾病 0.0011468
for 疾病 0.0091743
may 疾病 0.0022936
prevention 疾病 0.0034404
killer 疾病 0.0011468
those 疾病 0.0045872
vaccine-preventable 疾病 0.0011468
ill 疾病 0.0045872
sick 疾病 0.0034404
major 疾病 0.0011468
exhaustion 疾病 0.0011468
diet-related 疾病 0.0011468
associated 疾病 0.0011468
maladies 疾病 0.0034404
NULL 疾病 0.0963303
treat 疾病 0.0022936
terms 疾病 0.0022936
are 疾病 0.0011468
disorder 疾病 0.0160550
pandemic 疾病 0.0068807
. 疾病 0.0286697
heart 疾病 0.0011468
infectious 疾病 0.0011468
bronchitis 疾病 0.0011468
Disease 疾病 0.0057339
as 疾病 0.0045872
diseases 疾病 0.1743119
psychopathy 疾病 0.0022936
mental 疾病 0.0045872
arthritis 疾病 0.0011468
condition 疾病 0.0022936
undergone 蜕变 0.2500000
thing 蜕变 0.2500000
transformation 蜕变 0.2500000
cycle 蜕变 0.2500000
email 断送 0.5000000
torpedo 断送 0.5000000
NULL 推动器 0.5000000
hyperdrive 推动器 0.5000000
by-catch 副渔获物 0.5000000
up 副渔获物 0.5000000
Rapa 拉帕努 0.5000000
native 拉帕努 0.5000000
translator 醉心于 1.0000000
nose 问好 0.1111111
hello 问好 0.4444444
. 问好 0.1111111
say 问好 0.2222222
ooh 问好 0.1111111
receive 来生 0.1111111
NULL 来生 0.4444444
imprinting 来生 0.1111111
generate 来生 0.2222222
afterlife 来生 0.1111111
passing 过世 0.0588235
NULL 过世 0.1470588
my 过世 0.0294118
passed 过世 0.2352941
dead 过世 0.0294118
died 过世 0.2058824
away 过世 0.2352941
past 过世 0.0294118
few 过世 0.0294118
those 名利双收 0.2500000
balance 名利双收 0.2500000
things 名利双收 0.2500000
two 名利双收 0.2500000
Hoover 胡佛 1.0000000
class 课后 0.6666667
after-school 课后 0.3333333
present 及时性 0.5000000
bias 及时性 0.2500000
issue 及时性 0.2500000
mother-in-law 岳母 0.8333333
in-law 岳母 0.1666667
NULL 编成 0.2500000
choreography 编成 0.2500000
and 编成 0.5000000
tractor 挂车 0.3333333
truck 挂车 0.6666667
buckling 弧线 0.1111111
NULL 弧线 0.2222222
arcs 弧线 0.1111111
arc 弧线 0.3333333
centered 弧线 0.2222222
the 抵御 0.0322581
against 抵御 0.1935484
hurricane 抵御 0.0322581
prevent 抵御 0.0322581
NULL 抵御 0.0322581
defense 抵御 0.0645161
defending 抵御 0.0645161
Michoacán 抵御 0.0645161
to 抵御 0.3870968
resists 抵御 0.0322581
beat 抵御 0.0322581
deflecting 抵御 0.0322581
here 悬而未决 0.1666667
remaining 悬而未决 0.1666667
haven 悬而未决 0.1666667
hesitation 悬而未决 0.1666667
air 悬而未决 0.1666667
unanswered 悬而未决 0.1666667
love 爱时 1.0000000
archangel 天使长 1.0000000
Diana Diana 0.6000000
DR Diana 0.3000000
princess Diana 0.1000000
NULL 加和 0.3333333
addition 加和 0.3333333
modulo 加和 0.3333333
NULL 喝上 0.1111111
will 喝上 0.2222222
have 喝上 0.3333333
used 喝上 0.1111111
clean 喝上 0.1111111
this 喝上 0.1111111
corners 有孔 1.0000000
211k k 0.3333333
84k k 0.6666667
yeah 對啊 1.0000000
Richlin 艾米.里希林 1.0000000
came 母猴 0.5000000
monkey 母猴 0.5000000
&quot; 卡鲁那 1.0000000
Abu 阿布格莱布 0.3333333
NULL 阿布格莱布 0.0833333
simulating 阿布格莱布 0.0833333
Ghraib 阿布格莱布 0.4166667
fellatio 阿布格莱布 0.0833333
out 翻过来 0.0476190
throw 翻过来 0.0952381
over 翻过来 0.3333333
experimented 翻过来 0.0476190
you 翻过来 0.1904762
upside 翻过来 0.0476190
flip 翻过来 0.2380952
smackheads 排好队 1.0000000
&quot; 〈 0.2500000
Spell 〈 0.2500000
Child 〈 0.2500000
Spirit 〈 0.2500000
expensive 生电 1.0000000
NULL 如用 0.5000000
cardboard 如用 0.5000000
paid 笔钱 0.1666667
. 笔钱 0.5000000
money 笔钱 0.3333333
quiet 爱静 1.0000000
.01 0.01 1.0000000
pain 精华 0.0588235
distill 精华 0.0588235
NULL 精华 0.1176471
of 精华 0.0588235
can 精华 0.1764706
edit 精华 0.0588235
essence 精华 0.2941176
distillation 精华 0.0588235
have 精华 0.1176471
math 耽误 0.1666667
delivery 耽误 0.1666667
delay 耽误 0.1666667
on-time 耽误 0.1666667
that 耽误 0.3333333
is 有间 0.5000000
LudoTruck 有间 0.5000000
towns 乡镇 0.1428571
formats 乡镇 0.1428571
NULL 乡镇 0.1428571
village 乡镇 0.5714286
NULL 傢伙 1.0000000
NULL 8 0.0365854
Eight-digit 8 0.0040650
eight-by-eight 8 0.0081301
eight-year 8 0.0081301
to 8 0.0121951
8-year-old 8 0.0081301
its 8 0.0040650
eight-foot 8 0.0081301
for 8 0.0040650
eighth 8 0.0284553
plus 8 0.0040650
8 8 0.0406504
eight-year-old 8 0.0162602
eight-hour 8 0.0040650
10 8 0.0040650
chessboards 8 0.0040650
eight 8 0.7642276
an 8 0.0365854
four 8 0.0040650
biomimicry 仿生学 0.1428571
NULL 仿生学 0.0714286
bionic 仿生学 0.1428571
biomimetics 仿生学 0.1428571
bio-mimicry 仿生学 0.1428571
biomimetic 仿生学 0.0714286
bionics 仿生学 0.2857143
India 怨气冲天 1.0000000
telomerase 端粒酶 1.0000000
to 长足 0.2500000
NULL 长足 0.1250000
further 长足 0.1250000
since 长足 0.2500000
boomed 长足 0.1250000
twitch 长足 0.1250000
seven 6点 1.0000000
overly 名不副实 1.0000000
NULL 立体声 0.0588235
20,000-dollar 立体声 0.0588235
high-definition 立体声 0.0588235
binaural 立体声 0.1176471
surround 立体声 0.1176471
stereo 立体声 0.1176471
involving 立体声 0.0588235
have 立体声 0.0588235
compared 立体声 0.1176471
stereos 立体声 0.0588235
sound 立体声 0.1764706
stack 堆高 1.0000000
NULL 保护地 0.3333333
protected 保护地 0.3333333
albatross 保护地 0.3333333
green 绿叶 0.6000000
densely 绿叶 0.4000000
carcinogens 致癌物 0.5000000
decreased 致癌物 0.0555556
carcinogen 致癌物 0.1111111
. 致癌物 0.2222222
carcinogenic 致癌物 0.1111111
Rear Window 0.3333333
Windows Window 0.3333333
is Window 0.3333333
Yo 草泥 0.5000000
motherfucker 草泥 0.5000000
the 日本人 0.3548387
NULL 日本人 0.0322581
Japanese 日本人 0.5483871
Japan 日本人 0.0322581
twenty-two-year-old 日本人 0.0322581
Quayle 丹·奎尔 0.5000000
Dan 丹·奎尔 0.5000000
Heinrich 海因 1.0000000
the 跑道 0.0571429
a 跑道 0.0285714
NULL 跑道 0.0857143
track 跑道 0.2571429
airstrip 跑道 0.0571429
many 跑道 0.0285714
operations 跑道 0.0285714
runway 跑道 0.2857143
down 跑道 0.0857143
and 跑道 0.0857143
order 顺子 1.0000000
Asianers 东亚人 1.0000000
households 收入 0.0022173
percent 收入 0.0133038
HMO 收入 0.0022173
plots 收入 0.0022173
dollars 收入 0.0066519
American 收入 0.0022173
less 收入 0.0044346
earned 收入 0.0044346
income 收入 0.4124169
middle 收入 0.0022173
190 收入 0.0022173
sector 收入 0.0022173
wealth 收入 0.0066519
dollar 收入 0.0133038
earn 收入 0.0066519
earning 收入 0.0110865
top 收入 0.0022173
your 收入 0.0044346
Well-compensated 收入 0.0022173
with 收入 0.0066519
family 收入 0.0022173
minimum 收入 0.0044346
earnings 收入 0.0243902
over 收入 0.0022173
into 收入 0.0022173
earns 收入 0.0066519
going 收入 0.0022173
it 收入 0.0044346
salary 收入 0.0044346
inequality 收入 0.0044346
more 收入 0.0044346
population 收入 0.0022173
comparable 收入 0.0066519
pay 收入 0.0022173
gross 收入 0.0044346
net 收入 0.0022173
economy 收入 0.0022173
wage 收入 0.0044346
in 收入 0.0155211
middle-income 收入 0.0044346
raise 收入 0.0022173
per 收入 0.0022173
revenue 收入 0.0731707
differences 收入 0.0022173
incomes 收入 0.0310421
their 收入 0.0110865
revenues 收入 0.0443459
taxes 收入 0.0022173
capita 收入 0.0088692
NULL 收入 0.0931264
low-income 收入 0.0177384
money 收入 0.0199557
are 收入 0.0044346
par 收入 0.0044346
high-income 收入 0.0044346
rich 收入 0.0044346
. 收入 0.0133038
raising 收入 0.0022173
receipts 收入 0.0022173
make 收入 0.0133038
than 收入 0.0022173
Nigerian 收入 0.0022173
investment 收入 0.0022173
paid 收入 0.0155211
GDP 收入 0.0022173
measure 收入 0.0022173
mother 毛骨耸然 1.0000000
NULL 平且 1.0000000
architecture 用武之地 0.3333333
practice 用武之地 0.3333333
NULL 用武之地 0.3333333
upstanding 正派 1.0000000
the 瓦伊瑟利 1.0000000
NULL 抓了 0.5000000
her 抓了 0.5000000
, 性別 1.0000000
trial 耳闻 0.0769231
heard 耳闻 0.6923077
a 耳闻 0.0769231
. 耳闻 0.0769231
&apos;ve 耳闻 0.0769231
draw 来画 1.0000000
lawn-mowing 锄草 1.0000000
battlefield 战斗力 0.5000000
combat 战斗力 0.5000000
they 葡萄 0.0181818
NULL 葡萄 0.1090909
staph 葡萄 0.0363636
carbonated 葡萄 0.0181818
Noir 葡萄 0.0363636
two 葡萄 0.0181818
Pinot 葡萄 0.0181818
who 葡萄 0.0181818
extra 葡萄 0.0181818
zero 葡萄 0.0181818
grape 葡萄 0.2363636
grapes 葡萄 0.3272727
growing 葡萄 0.0181818
ballrooms 葡萄 0.0181818
bonus 葡萄 0.0181818
big 葡萄 0.0181818
one 葡萄 0.0181818
monkeys 葡萄 0.0363636
. 大发慈悲 0.5000000
mattered 大发慈悲 0.5000000
enclosures 猴笼里 1.0000000
supposed 2030年 0.0263158
weren 2030年 0.0263158
2030 2030年 0.7368421
by 2030年 0.2105263
in 钍反应堆 1.0000000
male 少年期 0.5000000
adolescent 少年期 0.5000000
it 弄弯 0.5000000
bent 弄弯 0.5000000
experience 阅历 0.5000000
genuflect 阅历 0.5000000
NULL 喉舌 0.2500000
for 喉舌 0.5000000
voiceless 喉舌 0.2500000
million 却有 0.2857143
NULL 却有 0.4285714
, 却有 0.1428571
fun 却有 0.1428571
the 统计 0.0512821
demographic 统计 0.0439560
crunch 统计 0.0036630
statistics 统计 0.2783883
taking 统计 0.0109890
statistical 统计 0.0805861
that 统计 0.0219780
demographers 统计 0.0073260
on 统计 0.0293040
Retirement 统计 0.0036630
fleet 统计 0.0036630
animated 统计 0.0036630
count 统计 0.0256410
records 统计 0.0036630
according 统计 0.0146520
data 统计 0.0402930
U.N. 统计 0.0109890
counted 统计 0.0073260
significant 统计 0.0109890
demographics 统计 0.0293040
and 统计 0.0036630
frequent 统计 0.0036630
NULL 统计 0.0879121
of 统计 0.0073260
are 统计 0.0073260
is 统计 0.0036630
statistically 统计 0.0622711
estimate 统计 0.0036630
wind 统计 0.0036630
estimated 统计 0.0036630
improbability 统计 0.0036630
Statistics 统计 0.0036630
census 统计 0.0109890
stats 统计 0.0183150
vote 统计 0.0036630
exist 统计 0.0036630
insanities 统计 0.0036630
statistic 统计 0.0329670
now 统计 0.0109890
statisticians 统计 0.0293040
statistician 统计 0.0109890
so 松柏 1.0000000
food 粮票 0.6000000
stamps 粮票 0.4000000
A380 A380 0.7500000
bracket A380 0.2500000
and 这封 0.2000000
realize 这封 0.2000000
this 这封 0.6000000
Reebok 锐步 0.7500000
for 锐步 0.2500000
persistent 試著 1.0000000
NULL 过客 0.6666667
fade 过客 0.3333333
it 即期 1.0000000
NULL 买东西 0.5000000
buy 买东西 0.5000000
Faso 纳法 1.0000000
a 购入 0.3333333
dress 购入 0.3333333
buy 购入 0.3333333
NULL SAP 1.0000000
ourselves 观 0.0400000
Method 观 0.0400000
regarding 观 0.0400000
NULL 观 0.1200000
of 观 0.3200000
Ladakh 观 0.0400000
watch 观 0.0800000
view 观 0.0800000
. 观 0.0800000
sense 观 0.0400000
and 观 0.1200000
five 五十亿 0.5000000
billion 五十亿 0.5000000
conditioners 调节剂 1.0000000
against 跟红 0.5000000
mapped 跟红 0.5000000
coming 从内 0.2500000
from 从内 0.5000000
perfume 从内 0.2500000
, 科学化 0.5000000
philosophizing 科学化 0.5000000
New 新墨西哥州 0.4375000
in 新墨西哥州 0.1250000
mesas 新墨西哥州 0.0625000
Mexico 新墨西哥州 0.3750000
south 朝南 0.6666667
south-facing 朝南 0.3333333
Rover 深河 0.5000000
Deep 深河 0.5000000
Row Row 1.0000000
against 违背 0.2941176
defy 违背 0.0294118
NULL 违背 0.0882353
contrary 违背 0.0588235
expectations 违背 0.0588235
benign 违背 0.0294118
counterintuitive 违背 0.0588235
force 违背 0.0294118
to 违背 0.0294118
logging 违背 0.0294118
breaks 违背 0.0294118
transgresses 违背 0.0294118
defeats 违背 0.0294118
violate 违背 0.1764706
temptations 违背 0.0294118
the 正位 0.6666667
NULL 正位 0.3333333
thermoplastic 热塑性 1.0000000
NULL 比划 0.2000000
use 比划 0.2000000
empty 比划 0.2000000
line 比划 0.2000000
sign 比划 0.2000000
Econol Econol 0.5000000
with Econol 0.5000000
Siq Siq 1.0000000
NULL 倾情 1.0000000
crowd-sourcing Mutopo 1.0000000
last 貼咯 1.0000000
midden 蚂蚁 0.0244898
the 蚂蚁 0.0285714
three-color 蚂蚁 0.0040816
around 蚂蚁 0.0040816
NULL 蚂蚁 0.1102041
workers 蚂蚁 0.0367347
of 蚂蚁 0.0081633
ant 蚂蚁 0.2040816
doing 蚂蚁 0.0122449
tiny 蚂蚁 0.0040816
-- 蚂蚁 0.0163265
ants 蚂蚁 0.3428571
foragers 蚂蚁 0.0326531
nest 蚂蚁 0.0244898
maintenance 蚂蚁 0.0163265
anybody 蚂蚁 0.0081633
crawling 蚂蚁 0.0040816
extra 蚂蚁 0.0040816
its 蚂蚁 0.0081633
myrmecologist 蚂蚁 0.0040816
colony 蚂蚁 0.0040816
so 蚂蚁 0.0081633
when 蚂蚁 0.0081633
species 蚂蚁 0.0040816
directs 蚂蚁 0.0040816
neighbors 蚂蚁 0.0081633
forager 蚂蚁 0.0122449
performing 蚂蚁 0.0122449
idea 蚂蚁 0.0081633
become 蚂蚁 0.0040816
an 蚂蚁 0.0285714
measurably 有所 0.0032787
the 有所 0.0098361
a 有所 0.0524590
along 有所 0.0032787
that 有所 0.0196721
in 有所 0.0590164
about 有所 0.0163934
this 有所 0.0032787
alternatives 有所 0.0032787
course 有所 0.0098361
change 有所 0.0229508
preserved 有所 0.0032787
pick 有所 0.0065574
difference 有所 0.0426230
toggle 有所 0.0032787
different 有所 0.0426230
their 有所 0.0163934
but 有所 0.0163934
too 有所 0.0032787
NULL 有所 0.1737705
of 有所 0.0426230
do 有所 0.0196721
up 有所 0.0065574
are 有所 0.0032787
is 有所 0.0131148
all 有所 0.0065574
responsive 有所 0.0032787
to 有所 0.0557377
gentle 有所 0.0032787
have 有所 0.0393443
. 有所 0.0983607
something 有所 0.0918033
act 有所 0.0131148
make 有所 0.0459016
improve 有所 0.0098361
getting 有所 0.0065574
than 有所 0.0065574
little 有所 0.0196721
were 有所 0.0032787
inlet 口采 1.0000000
fan 狂热者 0.3333333
cities 狂热者 0.3333333
nerds 狂热者 0.3333333
Martin-Robinson Nia 0.5000000
Nia Nia 0.5000000
. 麦卡锡 0.5000000
McCarthy 麦卡锡 0.5000000
whale 鲸鲨 1.0000000
NULL 易 0.2258065
attacked 易 0.0161290
easily 易 0.0322581
to 易 0.2580645
tamper 易 0.0161290
buoyant 易 0.0161290
accessible 易 0.0322581
heuristic 易 0.0161290
understandable 易 0.0161290
low-key 易 0.0161290
very 易 0.0322581
rates 易 0.0161290
implement 易 0.0161290
infectious 易 0.0161290
popularly 易 0.0161290
Louise 易 0.0322581
easy 易 0.0322581
as 易 0.0161290
likely 易 0.0483871
finiteness 易 0.0161290
and 易 0.0483871
vulnerable 易 0.0645161
dinosaurs 就光 1.0000000
NULL 机器般 0.5000000
shut 机器般 0.5000000
Whitney 时举办 1.0000000
NULL 尼尔 0.3333333
Neil 尼尔 0.6666667
NULL 庄重 0.2000000
solemn 庄重 0.8000000
1983 1983 1.0000000
mere 妄想 0.1111111
victims 妄想 0.1111111
mass 妄想 0.1111111
delusional 妄想 0.2222222
conceit 妄想 0.1111111
delusions 妄想 0.3333333
prostitution 卖淫 0.7857143
predominantly 卖淫 0.0714286
into 卖淫 0.0714286
prostitutes 卖淫 0.0714286
snapped 付诸 0.0270270
actions 付诸 0.0270270
organize 付诸 0.0270270
NULL 付诸 0.1081081
it 付诸 0.1351351
do 付诸 0.1621622
put 付诸 0.0270270
actually 付诸 0.1081081
into 付诸 0.1081081
executing 付诸 0.0270270
practice 付诸 0.0270270
try 付诸 0.0270270
action 付诸 0.0810811
about 付诸 0.0270270
ideas 付诸 0.0270270
something 付诸 0.0540541
NULL 水汽 0.3333333
piles 水汽 0.1666667
. 水汽 0.1666667
permanently 水汽 0.1666667
ocean 水汽 0.1666667
chromatin 染色质 1.0000000
NULL 打起精神 1.0000000
fabulous 车主们 0.3333333
owners 车主们 0.6666667
413 413 1.0000000
tradeoff 出先 1.0000000
on 5月 0.1290323
final 5月 0.0322581
May 5月 0.8387097
braille 盲文 0.4444444
edition 盲文 0.1111111
lifts 盲文 0.1111111
signage 盲文 0.1111111
Braille 盲文 0.2222222
paled 远不及 0.5000000
beside 远不及 0.5000000
out 沙尘 0.3333333
wiped 沙尘 0.1666667
in 沙尘 0.1666667
sand 沙尘 0.3333333
opportune 合时宜 1.0000000
so 空置率 1.0000000
. 扩展区 1.0000000
jangling 串 0.0156250
locked 串 0.0156250
NULL 串 0.0312500
bit 串 0.0156250
of 串 0.4531250
string 串 0.1562500
corn 串 0.0312500
series 串 0.0156250
strings 串 0.1093750
word 串 0.0156250
prayer 串 0.0156250
pearl 串 0.0156250
beads 串 0.0156250
long 串 0.0468750
list 串 0.0468750
on 航班 0.1071429
upper-class 航班 0.0714286
jetliners 航班 0.0357143
flight 航班 0.3214286
Virgin 航班 0.0357143
NULL 航班 0.0357143
Airways 航班 0.0714286
airline 航班 0.1785714
flights 航班 0.1428571
Intel 因特尔 1.0000000
restless 躁动 0.5000000
billowing 躁动 0.5000000
NULL 都由 0.2500000
players 都由 0.2500000
begin 都由 0.2500000
suspension 都由 0.2500000
tide 低潮期 0.5000000
low 低潮期 0.5000000
incursions 矿区 0.1428571
NULL 矿区 0.1428571
mining 矿区 0.4285714
and 矿区 0.2857143
the 协同 0.0175439
internationally-coordinated 协同 0.0175439
NULL 协同 0.1403509
come 协同 0.0175439
club 协同 0.0175439
, 协同 0.0350877
co-evolved 协同 0.0175439
collaboration 协同 0.0350877
co-producers 协同 0.0175439
peacetime 协同 0.0175439
co-developers 协同 0.0350877
together 协同 0.1754386
collaborative 协同 0.0350877
plants 协同 0.0175439
synergies 协同 0.0526316
coprocessors 协同 0.0175439
synergy 协同 0.0701754
physiotechnology 协同 0.0175439
co-evolutionary 协同 0.0175439
colonies 协同 0.0175439
other 协同 0.0350877
with 协同 0.1052632
&apos;ve 协同 0.0701754
NULL 失意 1.0000000
NULL 气喘如牛 1.0000000
NULL 子孙 0.0833333
are 子孙 0.1388889
offspring 子孙 0.1388889
save 子孙 0.0277778
our 子孙 0.1111111
seventh 子孙 0.0277778
generations 子孙 0.1388889
grandchildren 子孙 0.2222222
Dorado 子孙 0.0277778
future 子孙 0.0277778
their 子孙 0.0555556
now 然後 0.3333333
and 然後 0.6666667
step 起跳台 1.0000000
instantaneous 瞬时性 1.0000000
less 蛋卷 0.2500000
or 蛋卷 0.2500000
egg 蛋卷 0.5000000
kissed 吻别 1.0000000
saves 撵跑 1.0000000
suppliers 供货商 0.2500000
NULL 供货商 0.5000000
Suppliers 供货商 0.2500000
NULL 声源 0.2500000
bag 声源 0.2500000
, 声源 0.2500000
cradle-to-cradle 声源 0.2500000
, 25-34 1.0000000
made 堆成 0.2500000
lumped 堆成 0.2500000
NULL 堆成 0.2500000
cake 堆成 0.2500000
doorbells 门铃 0.1666667
doorbell 门铃 0.8333333
NULL 不胜枚举 0.3333333
, 不胜枚举 0.3333333
list 不胜枚举 0.3333333
, 大陆人 1.0000000
interspecies 菌种 0.4444444
targeted 菌种 0.1111111
species 菌种 0.1111111
species-specific 菌种 0.2222222
molecule 菌种 0.1111111
, 氧分子 1.0000000
Malcolm Malcolm 1.0000000
Nehru 尼赫鲁 1.0000000
Stephen 史蒂芬·柏圣 0.5000000
Bradley 史蒂芬·柏圣 0.5000000
against 呯 0.6666667
Bang 呯 0.3333333
A A等生 1.0000000
energy 核工业 0.1666667
nuclear 核工业 0.3333333
industry 核工业 0.1666667
estimate 核工业 0.3333333
NULL 开锁 1.0000000
global 无不 0.5000000
experience 无不 0.5000000
life 喘不 1.0000000
beverages 饮品 1.0000000
cancer 子宫癌 0.5000000
cervical 子宫癌 0.5000000
NULL 迷惘 1.0000000
Kittyhawk Kittyhawk 1.0000000
the 当作 0.0140845
a 当作 0.1173709
NULL 当作 0.0563380
regarded 当作 0.0046948
treat 当作 0.0093897
of 当作 0.0093897
terms 当作 0.0187793
patriots 当作 0.0046948
pretend 当作 0.0046948
being 当作 0.0375587
use 当作 0.0187793
treating 当作 0.0234742
think 当作 0.0234742
own 当作 0.0093897
pass 当作 0.0046948
it 当作 0.0140845
enemy 当作 0.0093897
synonymous 当作 0.0046948
for 当作 0.0375587
using 当作 0.0234742
nature 当作 0.0093897
undermine 当作 0.0046948
as 当作 0.4600939
considered 当作 0.0140845
be 当作 0.0140845
used 当作 0.0140845
were 当作 0.0093897
an 当作 0.0281690
shoulder 家伙们 0.2000000
NULL 家伙们 0.2000000
guys 家伙们 0.6000000
Basel 莱茵河 1.0000000
, 表说 1.0000000
rung 链都 1.0000000
white 天之骄子 0.3333333
you 天之骄子 0.3333333
were 天之骄子 0.3333333
WowCharts PPT 0.3333333
think PPT 0.3333333
PowerPoint PPT 0.3333333
Michoacana 家族 0.0084746
NULL 家族 0.0254237
, 家族 0.0169492
my 家族 0.0254237
travels 家族 0.0084746
Hominidae 家族 0.0084746
in 家族 0.0169492
Barricini 家族 0.0169492
business 家族 0.0084746
. 家族 0.0338983
bloodline 家族 0.0169492
Ansari 家族 0.0084746
Familia 家族 0.0254237
history 家族 0.0169492
La 家族 0.0169492
Emmalou 家族 0.0084746
Novaes 家族 0.0169492
abundant 家族 0.0084746
members 家族 0.0084746
runs 家族 0.0169492
families 家族 0.1101695
bacteria 家族 0.0084746
Champ 家族 0.0084746
clan 家族 0.0338983
family 家族 0.4915254
extended 家族 0.0338983
then Kibaki 0.2500000
Kibaki Kibaki 0.7500000
commander 解放军 0.5000000
marrying 解放军 0.5000000
hill 真好 0.0370370
&apos;s 真好 0.1851852
harm 真好 0.0370370
goes 真好 0.0370370
speech 真好 0.0740741
any 真好 0.0370370
nice 真好 0.1111111
appropriate 真好 0.0370370
&quot; 真好 0.0370370
good 真好 0.1481481
Great 真好 0.0740741
. 真好 0.1851852
beautiful 最丑 1.0000000
Holy 圣周 0.2500000
Week 圣周 0.2500000
celebration 圣周 0.5000000
top-down 由上至下 0.5000000
process 由上至下 0.5000000
chassis 钢材 0.1250000
steel 钢材 0.7500000
steels 钢材 0.1250000
expensive 高 0.0087796
opponent 高 0.0026339
breasts 高 0.0008780
foot 高 0.0052678
better 高 0.0070237
high-UV 高 0.0017559
high-life 高 0.0008780
waves 高 0.0017559
ke 高 0.0008780
precision 高 0.0008780
and 高 0.0026339
too 高 0.0043898
prices 高 0.0008780
vacancy 高 0.0008780
tall 高 0.0438982
of 高 0.0140474
costly 高 0.0017559
meters 高 0.0017559
high-tech 高 0.0079017
have 高 0.0026339
expensively 高 0.0008780
much 高 0.0070237
quality 高 0.0061457
costs 高 0.0026339
levels 高 0.0035119
alarmingly 高 0.0008780
can 高 0.0008780
height 高 0.0079017
right 高 0.0008780
survivors 高 0.0008780
high-budget 高 0.0008780
metabolically 高 0.0008780
a 高 0.0184372
bit 高 0.0017559
warmer 高 0.0017559
taller 高 0.0061457
walls 高 0.0008780
remarry 高 0.0008780
in 高 0.0140474
countries 高 0.0008780
Lego 高 0.0096576
high-altitude 高 0.0017559
Hyper 高 0.0008780
very 高 0.0175593
expectations 高 0.0017559
tough 高 0.0008780
HD 高 0.0008780
high-dose 高 0.0008780
lot 高 0.0035119
efficient 高 0.0043898
definition 高 0.0008780
perchlorate 高 0.0026339
high-income 高 0.0017559
topical 高 0.0008780
low 高 0.0017559
high-resolution 高 0.0114135
highest 高 0.0307287
calving 高 0.0008780
high-quality 高 0.0052678
as 高 0.0035119
high-performance 高 0.0035119
Legos 高 0.0052678
highly 高 0.0131694
syrup 高 0.0008780
inches 高 0.0008780
, 高 0.0228270
rate 高 0.0043898
mortality 高 0.0026339
specular 高 0.0017559
dense 高 0.0096576
high-fructose 高 0.0008780
crafts 高 0.0008780
Gogh 高 0.0052678
educated 高 0.0026339
tallest 高 0.0052678
density 高 0.0026339
high-fidelity 高 0.0008780
level 高 0.0026339
people 高 0.0026339
top 高 0.0026339
one 高 0.0008780
covered 高 0.0008780
high-dosage 高 0.0008780
with 高 0.0026339
high-quantity 高 0.0017559
range 高 0.0008780
Ghana 高 0.0008780
advanced 高 0.0035119
good 高 0.0070237
group 高 0.0008780
high-fear 高 0.0008780
extremely 高 0.0017559
feet 高 0.0175593
country 高 0.0008780
reactor 高 0.0008780
record-holder 高 0.0008780
downturn 高 0.0008780
pretty 高 0.0052678
little 高 0.0026339
then 高 0.0008780
stories 高 0.0017559
relatively 高 0.0017559
phobias 高 0.0008780
more 高 0.0096576
hot 高 0.0026339
&apos;s 高 0.0035119
the 高 0.0061457
oxytocin 高 0.0008780
great-great-grandmother 高 0.0008780
high-cost 高 0.0008780
high-capacity 高 0.0017559
radiation 高 0.0017559
sky-high 高 0.0008780
cost-effective 高 0.0026339
high-risk 高 0.0052678
rates 高 0.0043898
enough 高 0.0017559
per 高 0.0008780
sulfides 高 0.0008780
resolution 高 0.0017559
NULL 高 0.1553995
high-energy 高 0.0017559
high-definition 高 0.0008780
heights 高 0.0017559
up 高 0.0131694
are 高 0.0105356
doses 高 0.0008780
high 高 0.1834943
-- 高 0.0008780
high-explosive 高 0.0008780
above 高 0.0079017
senior 高 0.0026339
. 高 0.0228270
at 高 0.0026339
high-functioning 高 0.0008780
altitude 高 0.0008780
maybe 高 0.0008780
hyper-intelligent 高 0.0008780
higher 高 0.0913082
than 高 0.0070237
fog-catching 高 0.0008780
&#93; 高 0.0017559
20mph 高 0.0008780
likely 高 0.0026339
left 省下 0.0208333
saved 省下 0.1041667
saving 省下 0.0625000
NULL 省下 0.1666667
would 省下 0.1041667
for 省下 0.0833333
billion 省下 0.0416667
per 省下 0.0208333
spending 省下 0.0208333
productively 省下 0.0208333
save 省下 0.2708333
savings 省下 0.0833333
sources 像源 1.0000000
the 室里 0.0277778
studio 室里 0.2222222
hackerspace 室里 0.0277778
we 室里 0.0277778
room 室里 0.2500000
rooms 室里 0.1111111
office 室里 0.0555556
waiting 室里 0.0277778
in 室里 0.1666667
lab 室里 0.0555556
. 室里 0.0277778
high-ranking 公狗 0.2000000
male 公狗 0.6000000
dogs 公狗 0.2000000
there 在一边 0.4000000
around 在一边 0.2000000
waiting 在一边 0.2000000
, 在一边 0.2000000
through 从零 1.0000000
Conrad 康拉德 1.0000000
NULL 會 0.5000000
will 會 0.5000000
non-commercially 非商业化 1.0000000
sons 徒弟们 1.0000000
say Boyz 1.0000000
Gell-Mann 墨瑞 1.0000000
childish 轮滑鞋 1.0000000
Ghrist Ghrist 1.0000000
Surrey 电输 1.0000000
the 搭配 0.0800000
combination 搭配 0.0800000
NULL 搭配 0.1600000
Rockports 搭配 0.0400000
kluged 搭配 0.0400000
-- 搭配 0.0400000
mismatch 搭配 0.0400000
fire 搭配 0.0400000
with 搭配 0.2000000
and 搭配 0.2400000
mixed 搭配 0.0400000
pastel 素色 1.0000000
five 德雷克 0.1111111
Passage 德雷克 0.2222222
Drake 德雷克 0.5555556
days 德雷克 0.1111111
NULL Ben&amps;amp 1.0000000
push 来按 0.2500000
let 来按 0.2500000
me 来按 0.5000000
the 降低 0.0204082
percent 降低 0.0127551
PhIP 降低 0.0025510
decline 降低 0.0102041
rate 降低 0.0153061
fell 降低 0.0076531
dropped 降低 0.0102041
our 降低 0.0025510
less 降低 0.0204082
about 降低 0.0076531
down 降低 0.1250000
alternatives 降低 0.0025510
cost 降低 0.0051020
lowering 降低 0.0178571
reducing 降低 0.0229592
hushed 降低 0.0025510
rates 降低 0.0127551
reduction 降低 0.0255102
by 降低 0.0382653
lowered 降低 0.0178571
level 降低 0.0025510
minimize 降低 0.0051020
halved 降低 0.0025510
their 降低 0.0127551
lower 降低 0.0714286
inefficient 降低 0.0025510
price 降低 0.0076531
and 降低 0.0127551
shrink 降低 0.0051020
risk 降低 0.0025510
falls 降低 0.0051020
half 降低 0.0051020
NULL 降低 0.0739796
lowers 降低 0.0051020
we 降低 0.0025510
decreases 降低 0.0076531
fallen 降低 0.0051020
decrease 降低 0.0229592
carcinogens 降低 0.0025510
cut 降低 0.0102041
to 降低 0.0841837
fall 降低 0.0076531
will 降低 0.0025510
decreasing 降低 0.0076531
been 降低 0.0076531
bring 降低 0.0025510
get 降低 0.0127551
. 降低 0.0331633
quality 降低 0.0025510
degrade 降低 0.0076531
reduce 降低 0.1071429
when 降低 0.0051020
costs 降低 0.0025510
reduces 降低 0.0153061
easier 降低 0.0051020
child 降低 0.0025510
reduced 降低 0.0229592
intolerant 降低 0.0025510
go 降低 0.0051020
paid 降低 0.0025510
neuroleptic 降低 0.0025510
drops 降低 0.0051020
falling 降低 0.0076531
ridiculed 讥笑 1.0000000
astonishing 正发生 1.0000000
trying 虔敬 0.3333333
NULL 虔敬 0.3333333
start 虔敬 0.3333333
NULL 写歌 1.0000000
out 用尽 0.2258065
NULL 用尽 0.1612903
of 用尽 0.1290323
exhausting 用尽 0.0322581
running 用尽 0.1612903
all 用尽 0.0967742
oil 用尽 0.0322581
run 用尽 0.0322581
will 用尽 0.0322581
too 用尽 0.0322581
&apos;ve 用尽 0.0645161
phi X-174 0.2500000
of X-174 0.5000000
cartoon X-174 0.2500000
predecessor 前人 0.0909091
upon 前人 0.0909091
never-been-done-before 前人 0.0909091
NULL 前人 0.1818182
of 前人 0.1818182
innovations 前人 0.0909091
building 前人 0.0909091
my 前人 0.0909091
rutted 前人 0.0909091
follow 水道 0.0769231
they 水道 0.0769231
lead 水道 0.1538462
channels 水道 0.1538462
waterways 水道 0.0769231
converge 水道 0.0769231
water 水道 0.0769231
waterslide 水道 0.0769231
dug 水道 0.0769231
and 水道 0.1538462
auditory 声像 1.0000000
NULL 白喉 1.0000000
NULL 业要 1.0000000
Constable Constable 1.0000000
disrespected 贬低 0.1111111
belittle 贬低 0.1111111
NULL 贬低 0.2222222
devaluing 贬低 0.1111111
relegate 贬低 0.2222222
devalue 贬低 0.2222222
they 如从 1.0000000
Francisco Francisco 1.0000000
Monster Monster 1.0000000
Asia 东南亚 0.4482759
Asian 东南亚 0.0344828
Southeast 东南亚 0.4482759
South 东南亚 0.0689655
. 盖紧 0.3333333
lids 盖紧 0.3333333
up 盖紧 0.3333333
fascinates 神往 0.2000000
NULL 神往 0.2000000
is 神往 0.6000000
NULL Shortz 1.0000000
rim 轮缘 1.0000000
tends 诈病症 0.2000000
malingering 诈病症 0.6000000
. 诈病症 0.2000000
the 受洗 0.2500000
baptized 受洗 0.5000000
being 受洗 0.2500000
mid- 海关 0.1250000
customs 海关 0.7500000
Customs 海关 0.1250000
through 脱脂剂 0.1666667
degreaser 脱脂剂 0.3333333
NULL 脱脂剂 0.1666667
. 脱脂剂 0.1666667
clean 脱脂剂 0.1666667
wetness 润湿 1.0000000
Moyers 比尔.莫耶斯 0.5000000
Bill 比尔.莫耶斯 0.5000000
it 门儿 0.3333333
. 门儿 0.3333333
happens 门儿 0.3333333
classes 中上 0.1666667
middle-income 中上 0.1666667
upper-middle 中上 0.1666667
upper 中上 0.3333333
business 中上 0.1666667
process 出更 0.5000000
assembly 出更 0.5000000
the 海斯 0.5000000
Thames 海斯 0.5000000
okay 好好好 1.0000000
gas 肥料厂 1.0000000
bathing 泳衣 0.4285714
suits 泳衣 0.2857143
Speedos 泳衣 0.1428571
European 泳衣 0.1428571
steel 炼钢 1.0000000
lenses 短焦 1.0000000
section 版上 1.0000000
syntaxes 语序 1.0000000
heads 磁头 0.5000000
crashing 磁头 0.2500000
were 磁头 0.2500000
Mischel 沃特米塞奇 0.5000000
Walter 沃特米塞奇 0.5000000
the Limpopo 0.2000000
NULL Limpopo 0.2000000
Limpopo Limpopo 0.6000000
. 归宿 0.1666667
belong 归宿 0.1666667
evolve 归宿 0.1666667
home 归宿 0.1666667
mountains 归宿 0.1666667
computers 归宿 0.1666667
KKR 贝恩 1.0000000
Opportunity 机遇号 1.0000000
NULL 89 0.1000000
89 89 0.9000000
hydrology 水文学 1.0000000
green 绿光 0.5000000
light 绿光 0.5000000
Aaaahhh 哎呀呀 1.0000000
parallelogram 边形 0.1250000
hexagons 边形 0.1250000
make 边形 0.2500000
trapezoids 边形 0.1250000
a 边形 0.2500000
hexagon 边形 0.1250000
leg 人肉 0.0526316
human 人肉 0.1578947
a 人肉 0.1578947
roasting 人肉 0.0526316
bombers 人肉 0.1052632
crowdsourcing 人肉 0.0526316
flesh 人肉 0.1052632
suicide 人肉 0.1052632
cannibal 人肉 0.0526316
. 人肉 0.1052632
crowdsourced 人肉 0.0526316
NULL 安卓 0.1666667
Android 安卓 0.8333333
the 思想 0.0230415
thought 思想 0.0622120
linearly 思想 0.0023041
unsurprisingly 思想 0.0023041
worth 思想 0.0023041
that 思想 0.0023041
secular-minded 思想 0.0023041
thinkers 思想 0.0092166
our 思想 0.0092166
in 思想 0.0046083
one-life 思想 0.0023041
ideology 思想 0.0115207
encoding 思想 0.0023041
thoughtful 思想 0.0069124
momentum 思想 0.0023041
subjective 思想 0.0023041
marginal 思想 0.0023041
your 思想 0.0046083
considered 思想 0.0023041
idea 思想 0.0829493
conceived 思想 0.0023041
minds 思想 0.0437788
mind 思想 0.1082949
NULL 思想 0.1313364
thoughts 思想 0.0483871
of 思想 0.0230415
are 思想 0.0023041
frame 思想 0.0046083
all 思想 0.0046083
to 思想 0.0069124
conservative 思想 0.0023041
thinking 思想 0.0437788
intellectual 思想 0.0046083
transfer 思想 0.0046083
. 思想 0.0207373
personal 思想 0.0023041
think 思想 0.0069124
spreading 思想 0.0069124
mentalese 思想 0.0023041
insight 思想 0.0069124
message 思想 0.0092166
thought-controlled 思想 0.0115207
pro-American 思想 0.0023041
concepts 思想 0.0069124
Buddhism 思想 0.0023041
mental 思想 0.0115207
an 思想 0.0253456
ideas 思想 0.2142857
toothed 齿鲸 0.5000000
whales 齿鲸 0.5000000
skillfully 技巧性 0.5000000
NULL 技巧性 0.5000000
roads 铺路 0.4000000
NULL 铺路 0.4000000
action 铺路 0.2000000
NULL 重焕 1.0000000
the 阿拉斯加 0.0333333
Alaska 阿拉斯加 0.8333333
Alaskan 阿拉斯加 0.0666667
1850s 阿拉斯加 0.0333333
Orcas 阿拉斯加 0.0333333
Donald Donald 1.0000000
errors 估值 0.3333333
value 估值 0.6666667
NULL 4千2百万 1.0000000
the 印象 0.0128205
assume 印象 0.0064103
which 印象 0.0192308
that 印象 0.0192308
perception 印象 0.0128205
perceptions 印象 0.0064103
images 印象 0.0192308
very 印象 0.0256410
gives 印象 0.0064103
impressive 印象 0.0961538
perceived 印象 0.0192308
I 印象 0.0064103
idea 印象 0.0192308
delinked 印象 0.0064103
mind 印象 0.0192308
NULL 印象 0.1474359
most 印象 0.0320513
impressed 印象 0.0641026
of 印象 0.0384615
uber-exaggerated 印象 0.0064103
impressions 印象 0.0320513
impress 印象 0.0192308
. 印象 0.0192308
impression 印象 0.1410256
misleading 印象 0.0064103
stereotypes 印象 0.0064103
Troy 印象 0.0064103
remember 印象 0.0320513
image 印象 0.0576923
chime 印象 0.0064103
associate 印象 0.0064103
memorize 印象 0.0064103
was 印象 0.0256410
as 印象 0.0128205
events 印象 0.0064103
bites 印象 0.0064103
an 印象 0.0256410
derivative 向量 0.1250000
four-vector 向量 0.1250000
vectors 向量 0.1250000
constant 向量 0.1250000
where 向量 0.2500000
vector 向量 0.2500000
around 结交 0.2000000
making 结交 0.2000000
palling 结交 0.2000000
meet 结交 0.2000000
them 结交 0.2000000
NULL 列强 1.0000000
Peace 和平奖 1.0000000
Romeo 罗密欧 1.0000000
emotions 煽情 1.0000000
science 科技部 0.5000000
stipends 科技部 0.5000000
List 辛德勒 0.2500000
Schindler 辛德勒 0.7500000
rings 环中 1.0000000
in 招商 1.0000000
eliminated 结业 0.3333333
accomplishment 结业 0.3333333
get 结业 0.3333333
Infarction 词来 1.0000000
man 首富 0.5000000
richest 首富 0.5000000
the 享受 0.0212014
a 享受 0.0141343
meal 享受 0.0035336
, 享受 0.0035336
fun 享受 0.0141343
enjoyed 享受 0.0494700
in 享受 0.0212014
life 享受 0.0141343
lay 享受 0.0035336
enjoy 享受 0.2685512
for 享受 0.0035336
Tevas 享受 0.0035336
sun 享受 0.0070671
delight 享受 0.0070671
be 享受 0.0106007
binged 享受 0.0035336
your 享受 0.0212014
but 享受 0.0070671
privilege 享受 0.0035336
enjoyable 享受 0.0070671
with 享受 0.0141343
fab 享受 0.0035336
NULL 享受 0.1660777
time 享受 0.0106007
savor 享受 0.0070671
having 享受 0.0318021
being 享受 0.0176678
high 享受 0.0035336
sensual 享受 0.0106007
pleasure 享受 0.0212014
good 享受 0.0070671
share 享受 0.0035336
have 享受 0.0282686
enjoying 享受 0.0883392
. 享受 0.0070671
get 享受 0.0212014
joy 享受 0.0070671
enjoyment 享受 0.0212014
workafrolics 享受 0.0035336
sensuality 享受 0.0070671
play 享受 0.0070671
present-hedonism 享受 0.0070671
comfort 享受 0.0070671
eating 享受 0.0070671
gigantic 享受 0.0035336
Enablis 执业 0.2500000
practicing 执业 0.2500000
that 执业 0.2500000
called 执业 0.2500000
chasm 长驱 0.3333333
coming 长驱 0.3333333
along 长驱 0.3333333
. 聋子 0.5000000
deaf 聋子 0.5000000
sincere 回帖 0.5000000
responses 回帖 0.5000000
NULL 丛丛 1.0000000
lottery 下期 1.0000000
12.8 12.8 1.0000000
insults 来之 0.5000000
keeps 来之 0.5000000
sportin 破破 1.0000000
decode 解译 0.5000000
NULL 解译 0.5000000
NULL 眼皮 0.2500000
eyelids 眼皮 0.3750000
. 眼皮 0.1250000
noses 眼皮 0.1250000
batted 眼皮 0.1250000
NULL 而要 0.2000000
eradication 而要 0.2000000
, 而要 0.2000000
and 而要 0.4000000
HIV 千千万 1.0000000
Rip 瑞普 1.0000000
345,000 三十四万五千 1.0000000
trial 审讯 0.1538462
Inquisition 审讯 0.0769231
, 审讯 0.0769231
investigation 审讯 0.2307692
interrogation 审讯 0.2307692
Titan 审讯 0.0769231
interrogators 审讯 0.1538462
3.5 35亿 0.4000000
billion 35亿 0.6000000
Donna 唐娜 0.6000000
&apos;Donnell 唐娜 0.2000000
. 唐娜 0.2000000
soup 一锅粥 0.5000000
mess 一锅粥 0.5000000
network 总裁 0.0526316
NULL 总裁 0.0526316
of 总裁 0.0526316
International 总裁 0.0526316
CEOs 总裁 0.2631579
, 总裁 0.0526316
CEO 总裁 0.1578947
TV 总裁 0.0526316
. 总裁 0.0526316
president 总裁 0.2105263
Digital 著作权 0.2000000
NULL 著作权 0.2000000
Copyright 著作权 0.4000000
Millennium 著作权 0.2000000
pie 张大饼 1.0000000
the 从而 0.0845987
creates 从而 0.0021692
which 从而 0.0281996
that 从而 0.0715835
triggers 从而 0.0021692
physiology 从而 0.0021692
thus 从而 0.0065076
save 从而 0.0021692
capture 从而 0.0065076
thereby 从而 0.0195228
order 从而 0.0195228
keep 从而 0.0065076
earned 从而 0.0021692
intonations 从而 0.0021692
its 从而 0.0065076
so 从而 0.0607375
change 从而 0.0130152
by 从而 0.0043384
trump 从而 0.0043384
double-acting 从而 0.0021692
their 从而 0.0347072
and 从而 0.1800434
NULL 从而 0.0650759
of 从而 0.0021692
therefore 从而 0.0065076
into 从而 0.0368764
cooperate 从而 0.0043384
to 从而 0.2082430
will 从而 0.0238612
get 从而 0.0086768
us 从而 0.0021692
malpractice 从而 0.0021692
create 从而 0.0151844
make 从而 0.0173536
enable 从而 0.0021692
prevent 从而 0.0021692
can 从而 0.0195228
emancipate 从而 0.0021692
signal 从而 0.0043384
ecological 从而 0.0021692
try 从而 0.0043384
allow 从而 0.0065076
itself 从而 0.0021692
Gen. 上尉 0.1666667
NULL 上尉 0.1666667
Boykin 上尉 0.1666667
Willard 上尉 0.1666667
William 上尉 0.1666667
colonel 上尉 0.1666667
period 于文明 1.0000000
rehearsing 彩排 0.1666667
NULL 彩排 0.1666667
rehearse 彩排 0.3333333
rehearsal 彩排 0.3333333
fluxons 磁通 0.8000000
locks 磁通 0.2000000
boiling 沸水 0.3333333
boil 沸水 0.0833333
scalding 沸水 0.0833333
water 沸水 0.4166667
boils 沸水 0.0833333
NULL 费电 0.5000000
electricity 费电 0.5000000
the 在飞 0.2000000
Russians 在飞 0.2000000
outside 在飞 0.2000000
flying 在飞 0.4000000
count 得数 0.2500000
317 得数 0.2500000
have 得数 0.5000000
back 绕回 0.6666667
sent 绕回 0.3333333
there 一蹴而就 0.5000000
bullet 一蹴而就 0.2500000
silver 一蹴而就 0.2500000
funny 取乐 1.0000000
350 三百五十 0.8571429
TEDxParis 三百五十 0.1428571
three 原先 0.0204082
NULL 原先 0.1836735
very 原先 0.0408163
original 原先 0.0816327
expectations 原先 0.0204082
direction 原先 0.0204082
couch 原先 0.0204082
to 原先 0.2448980
entire 原先 0.0204082
OMC 原先 0.0204082
advances 原先 0.0204082
been 原先 0.0816327
used 原先 0.0612245
I 原先 0.1020408
were 原先 0.0612245
Shettar 班加尼·谢塔尔 0.5000000
Ranjani 班加尼·谢塔尔 0.5000000
feelings 情感 0.0310559
empathy 情感 0.0155280
, 情感 0.0031056
misplaced 情感 0.0031056
appears 情感 0.0031056
emotional 情感 0.2080745
rewards 情感 0.0062112
visceral 情感 0.0031056
our 情感 0.0031056
Pathos 情感 0.0031056
in 情感 0.0093168
destructive 情感 0.0031056
creature 情感 0.0217391
moral 情感 0.0062112
emotive 情感 0.0031056
for 情感 0.0062112
psychological 情感 0.0031056
madness 情感 0.0031056
feel 情感 0.0124224
love 情感 0.0155280
with 情感 0.0062112
emotionally 情感 0.0341615
connection 情感 0.0155280
affective 情感 0.0093168
NULL 情感 0.0993789
emotion 情感 0.1708075
of 情感 0.0093168
states 情感 0.0031056
. 情感 0.0217391
Emotional 情感 0.0062112
emotions 情感 0.1894410
romantic 情感 0.0031056
feeling 情感 0.0155280
grieve 情感 0.0031056
as 情感 0.0031056
side 情感 0.0031056
Creature 情感 0.0062112
emotion-like 情感 0.0124224
intensity 情感 0.0031056
an 情感 0.0217391
capsule 航天 0.0512821
&apos;s 航天 0.1538462
SpaceShipOne 航天 0.0256410
NULL 航天 0.0769231
returns 航天 0.0256410
NASA 航天 0.0769231
Burt 航天 0.0256410
aerospace 航天 0.1025641
space 航天 0.2307692
Space 航天 0.1025641
blows 航天 0.0256410
Aerial 航天 0.0256410
shuttle 航天 0.0769231
submarines 核潜艇 0.2000000
nuclear 核潜艇 0.4000000
building 核潜艇 0.2000000
&apos;m 核潜艇 0.2000000
Ranum Ranum 1.0000000
Katrina 台风 0.2222222
hurricane 台风 0.1111111
devastated 台风 0.2222222
Hurricane 台风 0.1111111
cyclone 台风 0.1111111
Nargis 台风 0.1111111
Cyclone 台风 0.1111111
841 841 1.0000000
NULL hippocampus 1.0000000
vote 投一 1.0000000
the 看准 0.5000000
visually 看准 0.5000000
market 闹市区 0.2000000
downtown 闹市区 0.4000000
NULL 闹市区 0.2000000
crowded 闹市区 0.2000000
: 2：18pm 0.3333333
p.m. 2：18pm 0.3333333
15 2：18pm 0.3333333
conned 受骗 0.1666667
. 受骗 0.3333333
baloney 受骗 0.1666667
lie 受骗 0.1666667
victim 受骗 0.1666667
labile 易变 0.3333333
varying 易变 0.3333333
mutable 易变 0.3333333
NULL 自食其果 1.0000000
NULL 琥珀 0.2500000
amber 琥珀 0.7500000
retake 重修 0.5000000
retook 重修 0.5000000
thick 粗线 1.0000000
contemplating 无限性 0.5000000
insignificance 无限性 0.5000000
&apos;s 走势 0.0526316
piece 走势 0.0526316
NULL 走势 0.2631579
heading 走势 0.0526316
darn 走势 0.0526316
forecast 走势 0.0526316
trends 走势 0.2105263
alone 走势 0.0526316
. 走势 0.1052632
trend 走势 0.1052632
contract 约稿 1.0000000
2014 2014年 1.0000000
open 海样 1.0000000
run 溜掉 0.5000000
him 溜掉 0.5000000
freeze-frame 停格 1.0000000
Geoffrey 由杰 1.0000000
master 大师级 1.0000000
vision 不疑 0.1666667
NULL 不疑 0.1666667
believe 不疑 0.5000000
, 不疑 0.1666667
Windows 视窗 0.3333333
NULL 视窗 0.3333333
windowing 视窗 0.3333333
chain 一连串 0.0384615
litany 一连串 0.0384615
a 一连串 0.2307692
of 一连串 0.4230769
barrage 一连串 0.0769231
photon 一连串 0.0384615
series 一连串 0.1538462
mandala 曼陀罗 1.0000000
NULL 杜撰 0.3333333
fiction 杜撰 0.3333333
myth-buster 杜撰 0.3333333
the 一旦 0.0017606
you 一旦 0.0545775
multiply 一旦 0.0017606
happens 一旦 0.0017606
that 一旦 0.0035211
, 一旦 0.0070423
plumbing 一旦 0.0017606
if 一旦 0.0475352
virtues 一旦 0.0017606
soon 一旦 0.0299296
once 一旦 0.4154930
whenever 一旦 0.0070423
discovery 一旦 0.0017606
but 一旦 0.0052817
and 一旦 0.0968310
start 一旦 0.0035211
&apos;ve 一旦 0.0211268
they 一旦 0.0088028
NULL 一旦 0.0404930
add 一旦 0.0017606
uncertainty 一旦 0.0017606
hypoxia 一旦 0.0017606
penetrates 一旦 0.0017606
after 一旦 0.0017606
get 一旦 0.0334507
when 一旦 0.1021127
activated 一旦 0.0035211
it 一旦 0.0228873
gets 一旦 0.0052817
as 一旦 0.0563380
freak 一旦 0.0017606
then 一旦 0.0140845
&quot; 病征 0.5000000
logorrhea 病征 0.5000000
the 种种 0.0467290
these 种种 0.0467290
yet 种种 0.0093458
that 种种 0.0280374
, 种种 0.0373832
whatever 种种 0.0280374
many 种种 0.0373832
our 种种 0.0093458
innate 种种 0.0093458
or 种种 0.0373832
walls 种种 0.0093458
blockbuster 种种 0.0093458
for 种种 0.0280374
sanctioned 种种 0.0093458
gardening 种种 0.0093458
society 种种 0.0093458
bears 种种 0.0093458
NULL 种种 0.1308411
of 种种 0.3084112
are 种种 0.0093458
all 种种 0.0560748
mechanics 种种 0.0093458
perpetrate 种种 0.0093458
. 种种 0.0186916
sorts 种种 0.0186916
global 种种 0.0093458
nervousness 种种 0.0093458
flytower 种种 0.0093458
elaborations 种种 0.0093458
myriad 种种 0.0093458
things 种种 0.0093458
excuses 种种 0.0093458
have 沃恩 0.5000000
we 沃恩 0.5000000
Rogers 罗杰斯 1.0000000
Oliver 奥利弗 1.0000000
tied 曾被 1.0000000
groove 荡漾 0.2000000
flupsy 荡漾 0.2000000
stir 荡漾 0.2000000
NULL 荡漾 0.2000000
blessings 荡漾 0.2000000
within 仅用 0.1428571
18 仅用 0.1428571
NULL 仅用 0.7142857
the 人择原理 0.2500000
principle 人择原理 0.2500000
Anthropic 人择原理 0.2500000
anthropic 人择原理 0.2500000
NULL 喷射流 1.0000000
, 船骸 1.0000000
NULL 悄然 0.1538462
slip 悄然 0.1538462
that 悄然 0.0769231
morbidity 悄然 0.0769231
away 悄然 0.2307692
Chinese 悄然 0.0769231
air 悄然 0.0769231
fades 悄然 0.0769231
elevator 悄然 0.0769231
blessings 离经叛道 1.0000000
NULL 感冒 0.0188679
a 感冒 0.0566038
cold 感冒 0.4528302
Z 感冒 0.0188679
develop 感冒 0.0188679
bad 感冒 0.0377358
flu 感冒 0.0943396
. 感冒 0.0188679
her 感冒 0.0188679
common 感冒 0.0754717
excite 感冒 0.0188679
&apos;t 感冒 0.0566038
influenzae 感冒 0.0188679
with 感冒 0.0188679
authority 感冒 0.0188679
influenza 感冒 0.0566038
self-built 房屋 0.0175439
the 房屋 0.0526316
scaling 房屋 0.0175439
NULL 房屋 0.1052632
housing 房屋 0.0964912
actually 房屋 0.0087719
roof 房屋 0.0087719
homes 房屋 0.0789474
houses 房屋 0.1666667
to 房屋 0.0087719
Roll-Ups 房屋 0.0087719
buildings 房屋 0.0350877
urban 房屋 0.0087719
house 房屋 0.2456140
for 房屋 0.0087719
build 房屋 0.0087719
properties 房屋 0.0087719
Exo 房屋 0.0263158
building 房屋 0.0263158
and 房屋 0.0438596
squatters 房屋 0.0087719
were 房屋 0.0087719
half 背面 0.0217391
the 背面 0.1956522
it 背面 0.0652174
NULL 背面 0.0217391
of 背面 0.0217391
back 背面 0.4130435
find 背面 0.0434783
backside 背面 0.0217391
on 背面 0.1739130
rear-projected 背面 0.0217391
Shania Twain 1.0000000
Fischer 马库斯·菲舍尔 0.5000000
Markus 马库斯·菲舍尔 0.5000000
remain 寄予 0.3333333
audacity 寄予 0.3333333
hopeful 寄予 0.3333333
Lechuguilla 卡尔斯巴德 1.0000000
the 解体 0.0909091
communism 解体 0.0454545
Soviet 解体 0.0454545
broke 解体 0.2272727
, 解体 0.0454545
up 解体 0.2272727
split 解体 0.0454545
Union 解体 0.2727273
Kidney 肾脏 0.0200000
actually 肾脏 0.0200000
collection 肾脏 0.0200000
volumetric 肾脏 0.0200000
kidney 肾脏 0.4800000
engineered 肾脏 0.0200000
little 肾脏 0.0200000
fluid 肾脏 0.0200000
. 肾脏 0.0200000
kidneys 肾脏 0.3600000
skirt 裙楼 1.0000000
NULL 惹火 0.6666667
piss 惹火 0.3333333
NULL 唯我主义 1.0000000
exchanger 热交换器 1.0000000
energy 锅里 0.3333333
pot 锅里 0.3333333
soup 锅里 0.3333333
she 倒车 0.2000000
NULL 倒车 0.2000000
switches 倒车 0.2000000
backwards 倒车 0.2000000
reverse 倒车 0.2000000
tuft 毛细 0.1666667
hair 毛细 0.3333333
capillary 毛细 0.5000000
the 万物 0.0757576
universes 万物 0.0303030
Earth 万物 0.0303030
NULL 万物 0.0454545
of 万物 0.1212121
works 万物 0.0151515
world 万物 0.0606061
all 万物 0.0606061
oneness 万物 0.0303030
-- 万物 0.0606061
. 万物 0.0303030
life 万物 0.0606061
unstoppable 万物 0.0151515
armchairs 万物 0.0151515
everything 万物 0.1363636
as 万物 0.0606061
things 万物 0.0454545
creation 万物 0.1060606
plastic 啃 0.2000000
NULL 啃 0.2000000
chomp 啃 0.2000000
wrecking 啃 0.2000000
ruminant 啃 0.2000000
grazed 擦过 1.0000000
relevantly 贴切 0.0588235
the 贴切 0.1176471
&apos;s 贴切 0.0588235
bid 贴切 0.0588235
NULL 贴切 0.2941176
nearest 贴切 0.0588235
. 贴切 0.2352941
eloquently 贴切 0.0588235
describing 贴切 0.0588235
pioneering 开拓者 0.3333333
NULL 开拓者 0.3333333
simple 开拓者 0.3333333
Tierro 火地 1.0000000
disabled 残疾人 0.4594595
NULL 残疾人 0.0270270
Paralympic 残疾人 0.0270270
Disabilities 残疾人 0.0270270
, 残疾人 0.0270270
disabilities 残疾人 0.0540541
national 残疾人 0.0270270
people 残疾人 0.0810811
challenged 残疾人 0.0270270
physically 残疾人 0.0270270
disability 残疾人 0.0810811
person 残疾人 0.0540541
with 残疾人 0.0810811
the 结晶 0.0384615
intelligence 结晶 0.0384615
NULL 结晶 0.1923077
of 结晶 0.1153846
baby 结晶 0.0769231
stackable 结晶 0.0384615
crystallize 结晶 0.1153846
poporo 结晶 0.0384615
. 结晶 0.0769231
gourd 结晶 0.0384615
crystallographer 结晶 0.0384615
crystallization 结晶 0.1923077
NULL PDB 1.0000000
NULL 房顶架 1.0000000
flat 降E 1.0000000
NULL 智能型 0.2500000
intelligence 智能型 0.2500000
intellectual 智能型 0.2500000
ultrasounds 智能型 0.2500000
Mr. 瑞尔 1.0000000
the 帝国 0.2328767
empire 帝国 0.1438356
a 帝国 0.0205479
tomato 帝国 0.0068493
NULL 帝国 0.0479452
did 帝国 0.0136986
of 帝国 0.0273973
imperial 帝国 0.0342466
fragmented 帝国 0.0068493
fall 帝国 0.0068493
empires 帝国 0.0958904
Empire 帝国 0.1712329
. 帝国 0.0342466
Reich 帝国 0.0068493
Holy 帝国 0.0068493
Imperial 帝国 0.0342466
Matrix 帝国 0.0136986
Ottomans 帝国 0.0068493
empire-building 帝国 0.0136986
West 帝国 0.0068493
imperialism 帝国 0.0342466
Ottoman 帝国 0.0205479
imperialists 帝国 0.0136986
withdrawing 鼓励 0.0028736
reinforcement 鼓励 0.0028736
need 鼓励 0.0057471
tried 鼓励 0.0057471
community 鼓励 0.0086207
innovation 鼓励 0.0114943
encourage 鼓励 0.2155172
for 鼓励 0.0057471
courage 鼓励 0.0057471
them 鼓励 0.0028736
kids 鼓励 0.0028736
incentify 鼓励 0.0028736
motivating 鼓励 0.0057471
people 鼓励 0.0057471
encouraged 鼓励 0.0890805
be 鼓励 0.0028736
self-direction 鼓励 0.0028736
and 鼓励 0.0057471
NULL 鼓励 0.0488506
wing 鼓励 0.0028736
engaging 鼓励 0.0057471
kickers 鼓励 0.0028736
boosts 鼓励 0.0028736
normally 鼓励 0.0028736
to 鼓励 0.2672414
incentives 鼓励 0.0172414
will 鼓励 0.0057471
us 鼓励 0.0086207
motivation 鼓励 0.0028736
students 鼓励 0.0028736
invest 鼓励 0.0028736
encourages 鼓励 0.0287356
engage 鼓励 0.0057471
enable 鼓励 0.0028736
inspiration 鼓励 0.0057471
mobilize 鼓励 0.0028736
encouragement 鼓励 0.0316092
communities 鼓励 0.0028736
urge 鼓励 0.0114943
as 鼓励 0.0028736
schools 鼓励 0.0057471
teachers 鼓励 0.0057471
try 鼓励 0.0057471
giving 鼓励 0.0028736
applause 鼓励 0.0057471
persuade 鼓励 0.0057471
inspire 鼓励 0.0316092
encouraging 鼓励 0.0833333
Nations 国富论 0.5000000
Wealth 国富论 0.5000000
volleyball 排球 1.0000000
mice 再现 0.0526316
Renaissance 再现 0.0526316
NULL 再现 0.2631579
, 再现 0.1578947
recreate 再现 0.1578947
recreating 再现 0.0526316
again 再现 0.2105263
re-map 再现 0.0526316
cast 和毡 1.0000000
NULL 行李箱 0.1666667
anything 行李箱 0.1666667
suitcase 行李箱 0.6666667
barbs 毒刺 0.5000000
poisonous 毒刺 0.5000000
, 120亿年 1.0000000
monument 葬于 1.0000000
, va 1.0000000
Fernández-Arias 阿贝图.费尔南斯 0.5000000
Alberto 阿贝图.费尔南斯 0.5000000
communities 入住率 0.5000000
half-vacant 入住率 0.5000000
Bald 秃鹰 0.1250000
vultures 秃鹰 0.2500000
Condor 秃鹰 0.2500000
Gossamer 秃鹰 0.3750000
predating 海胆 0.0416667
uni 海胆 0.0833333
urchins 海胆 0.2083333
predate 海胆 0.0416667
sea 海胆 0.3333333
urchin 海胆 0.2916667
swum 游过 0.0526316
lake 游过 0.0526316
swimming 游过 0.2105263
NULL 游过 0.0526316
swims 游过 0.1052632
swim 游过 0.1578947
Pole 游过 0.1052632
swam 游过 0.0526316
across 游过 0.2105263
Lafayette 拉法 1.0000000
NULL 道义 0.1000000
moral 道义 0.3333333
ethical 道义 0.0666667
rectitude 道义 0.0333333
imperative 道义 0.1000000
morally 道义 0.1333333
morals 道义 0.0666667
morality 道义 0.1333333
convictions 道义 0.0333333
all-hands-on-deck 围在 0.2000000
NULL 围在 0.2000000
circle 围在 0.6000000
NULL 分散相 1.0000000
stand 自强 0.5000000
up 自强 0.5000000
Len 兰不幸福 0.3333333
is 兰不幸福 0.3333333
unhappy 兰不幸福 0.3333333
billion 四十亿 0.5000000
four 四十亿 0.5000000
first 先是 0.2727273
shipped 先是 0.0909091
NULL 先是 0.2727273
collegiate 先是 0.0909091
stood 先是 0.0909091
and 先是 0.0909091
referring 先是 0.0909091
Force SAGE 1.0000000
is 盲了 1.0000000
inboard 内舱 0.5000000
an 内舱 0.5000000
deposits 矿层 0.5000000
ore 矿层 0.5000000
drop 投手 0.0909091
to 投手 0.0909091
those 投手 0.0909091
men 投手 0.0909091
bombardier 投手 0.0909091
who 投手 0.0909091
bombardiers 投手 0.2727273
pitcher 投手 0.1818182
raises 大街小巷 0.1250000
streets 大街小巷 0.2500000
NULL 大街小巷 0.1250000
Sudbury 大街小巷 0.1250000
street 大街小巷 0.3750000
is 无进无出 1.0000000
the 躺在 0.0181818
lies 躺在 0.0363636
bed 躺在 0.0454545
NULL 躺在 0.0272727
lying 躺在 0.2090909
floor 躺在 0.0090909
kennel 躺在 0.0090909
on 躺在 0.1636364
equally 躺在 0.0090909
in 躺在 0.1272727
his 躺在 0.0090909
down 躺在 0.0272727
lie 躺在 0.1090909
laid 躺在 0.0272727
laying 躺在 0.0454545
lay 躺在 0.0727273
there 躺在 0.0090909
was 躺在 0.0363636
beneath 躺在 0.0090909
be 用爱 0.3333333
should 用爱 0.3333333
treated 用爱 0.3333333
hall 墙垣 0.3333333
walls 墙垣 0.3333333
raising 墙垣 0.3333333
NULL 电视圈 1.0000000
cancer 子宫颈癌 0.5000000
cervical 子宫颈癌 0.5000000
till 溶到 0.5000000
fake 溶到 0.5000000
resources 资源 0.3920220
factor-100 资源 0.0013755
crowdsource 资源 0.0013755
Resources 资源 0.0055021
finite 资源 0.0027510
coal 资源 0.0013755
Source 资源 0.0013755
ranking 资源 0.0013755
resource-rich 资源 0.0041265
underutilized 资源 0.0041265
sources 资源 0.0110041
oscillate 资源 0.0027510
materials 资源 0.0041265
abundance 资源 0.0013755
energy 资源 0.0041265
source 资源 0.0302613
of 资源 0.0247593
limited 资源 0.0013755
protect 资源 0.0013755
mineral 资源 0.0013755
wind 资源 0.0027510
to 资源 0.0041265
have 资源 0.0027510
planet 资源 0.0027510
open-source 资源 0.0096286
access 资源 0.0055021
using 资源 0.0068776
renewable 资源 0.0027510
ground 资源 0.0027510
resource 资源 0.1361761
extract 资源 0.0013755
the 资源 0.0055021
given 资源 0.0013755
GIS 资源 0.0013755
need 资源 0.0027510
resource-poor 资源 0.0013755
natural 资源 0.0013755
earth 资源 0.0068776
in 资源 0.0068776
order 资源 0.0013755
reserve 资源 0.0013755
consumption 资源 0.0027510
countries 资源 0.0013755
? 资源 0.0055021
waste 资源 0.0013755
extractive 资源 0.0013755
stuff 资源 0.0013755
plenty 资源 0.0013755
basic 资源 0.0013755
lot 资源 0.0027510
NULL 资源 0.1100413
reusing 资源 0.0013755
are 资源 0.0027510
scarcity 资源 0.0055021
livestock 资源 0.0013755
care 资源 0.0013755
despoil 资源 0.0013755
use 资源 0.0055021
. 资源 0.0715268
available 资源 0.0178817
crowdsourced 资源 0.0013755
make 资源 0.0013755
saving 资源 0.0013755
forestry 资源 0.0027510
wasteful 资源 0.0027510
industry 资源 0.0013755
water 资源 0.0288858
resourcefulness 资源 0.0013755
oil-rich 资源 0.0027510
best-resourced 资源 0.0013755
capital 资源 0.0110041
eat 少吃 0.4545455
less 少吃 0.3636364
diet 少吃 0.0909091
fewer 少吃 0.0909091
choreographing 自觉地 0.3333333
avoid 自觉地 0.3333333
AIDS 自觉地 0.3333333
NULL 狗狗6-10 1.0000000
appreciate 能够 0.0002894
fly 能够 0.0002894
see 能够 0.0002894
if 能够 0.0014468
save 能够 0.0008681
target 能够 0.0005787
keep 能够 0.0005787
power 能够 0.0014468
makes 能够 0.0002894
expect 能够 0.0005787
also 能够 0.0008681
Kiva 能够 0.0005787
&apos;re 能够 0.0002894
pull 能够 0.0011574
possible 能够 0.0031829
and 能够 0.0002894
start 能够 0.0005787
cleans 能够 0.0002894
reaching 能够 0.0002894
of 能够 0.0020255
hope 能够 0.0017361
being 能够 0.0101273
will 能够 0.0208333
visible 能够 0.0002894
enable 能够 0.0026042
transform 能够 0.0008681
enables 能够 0.0026042
it 能够 0.0040509
access 能够 0.0026042
enabling 能够 0.0020255
can 能够 0.1843171
where 能够 0.0002894
capable 能够 0.0066551
way 能够 0.0002894
lead 能够 0.0002894
predict 能够 0.0005787
would 能够 0.0188079
fact 能够 0.0002894
understand 能够 0.0011574
actually 能够 0.0144676
deprives 能够 0.0002894
might 能够 0.0020255
order 能够 0.0023148
interfere 能够 0.0002894
cause 能够 0.0005787
supposing 能够 0.0002894
reality 能够 0.0002894
mentality 能够 0.0002894
betray 能够 0.0002894
object 能够 0.0005787
they 能够 0.0008681
position 能够 0.0002894
fluent 能够 0.0002894
works 能够 0.0014468
close 能够 0.0002894
&apos;ll 能够 0.0020255
us 能够 0.0011574
get 能够 0.0069444
problem-solvers 能够 0.0005787
control 能够 0.0014468
make 能够 0.0098380
heart 能够 0.0002894
go 能够 0.0020255
communicate 能够 0.0002894
allow 能够 0.0060764
itself 能够 0.0002894
ourselves 能够 0.0002894
around 能够 0.0002894
rise 能够 0.0005787
move 能够 0.0008681
that 能够 0.0766782
take 能够 0.0008681
allows 能够 0.0057870
on 能够 0.0002894
daylight 能够 0.0002894
compromise 能够 0.0002894
manages 能够 0.0002894
possibility 能够 0.0017361
accessible 能够 0.0005787
its 能够 0.0011574
win-win-wins 能够 0.0002894
tolerant 能够 0.0002894
change 能够 0.0005787
story-of-the-year 能够 0.0005787
affect 能够 0.0002894
compete 能够 0.0002894
identify 能够 0.0008681
survive 能够 0.0011574
trouser 能够 0.0002894
with 能够 0.0005787
achieve 能够 0.0008681
geared 能够 0.0002894
do 能够 0.0031829
we 能够 0.0052083
responsive 能够 0.0008681
indeed 能够 0.0002894
to 能够 0.1840278
making 能够 0.0005787
really 能够 0.0037616
helping 能够 0.0002894
able 能够 0.1076389
allowed 能够 0.0008681
allowing 能够 0.0017361
live 能够 0.0014468
sense 能够 0.0020255
neural 能够 0.0002894
the 能够 0.0078125
produce 能够 0.0011574
literally 能够 0.0017361
express 能够 0.0002894
capture 能够 0.0017361
could 能够 0.0645255
replicate 能够 0.0002894
new 能够 0.0002894
this 能够 0.0002894
narco-submarines 能够 0.0002894
enough 能够 0.0017361
for 能够 0.0031829
gives 能够 0.0011574
hoping 能够 0.0005787
those 能够 0.0002894
ways 能够 0.0008681
satisfaction 能够 0.0002894
be 能够 0.0758102
privilege 能够 0.0002894
tolerate 能够 0.0005787
reach 能够 0.0017361
NULL 能够 0.0752315
are 能够 0.0008681
equivalent 能够 0.0002894
develop 能够 0.0008681
straight 能够 0.0002894
bring 能够 0.0014468
been 能够 0.0002894
loving 能够 0.0002894
great 能够 0.0008681
help 能够 0.0031829
broadly 能够 0.0002894
upright-walking 能够 0.0008681
ability 能够 0.0069444
connect 能够 0.0008681
retain 能够 0.0005787
improve 能够 0.0005787
play 能够 0.0002894
obscura 等角 1.0000000
maraschino 加工厂 1.0000000
crank 重复 0.0036496
repeating 重复 0.0255474
almost 重复 0.0072993
animations 重复 0.0036496
, 重复 0.0036496
twice 重复 0.0036496
loop 重复 0.0474453
reuses 重复 0.0036496
refresh 重复 0.0036496
replicate 重复 0.0145985
iteration 重复 0.0072993
Day 重复 0.0036496
replicated 重复 0.0145985
repeated 重复 0.0839416
notorious 重复 0.0036496
reproduce 重复 0.0145985
for 重复 0.0036496
circle 重复 0.0036496
restate 重复 0.0036496
motifs 重复 0.0036496
reprogrammable 重复 0.0036496
covered 重复 0.0036496
again 重复 0.0656934
repeat 重复 0.1532847
and 重复 0.0072993
over 重复 0.0948905
repeats 重复 0.0182482
53 重复 0.0036496
NULL 重复 0.1021898
same 重复 0.0547445
tautological 重复 0.0036496
unreplicable 重复 0.0036496
reproduced 重复 0.0072993
to 重复 0.0036496
reusable 重复 0.0145985
. 重复 0.0474453
paraphrase 重复 0.0036496
infinite 重复 0.0072993
iterations 重复 0.0072993
recursive 重复 0.0072993
repetitively 重复 0.0036496
reuse 重复 0.0072993
pattern 重复 0.0072993
repetition 重复 0.0437956
repetitive 重复 0.0145985
times 重复 0.0255474
reproducing 重复 0.0036496
itself 重复 0.0109489
replay 重复 0.0109489
the 跨过 0.0714286
over 跨过 0.2142857
threshold 跨过 0.1071429
NULL 跨过 0.1071429
cross 跨过 0.1428571
flip 跨过 0.0714286
across 跨过 0.1428571
step 跨过 0.0357143
Hinnom 跨过 0.0357143
walk 跨过 0.0357143
stepping 跨过 0.0357143
together 风风光光 1.0000000
Laurie 劳 1.0000000
time-graphics 平面图 0.1250000
scribble 平面图 0.1250000
above 平面图 0.1250000
solar 平面图 0.1250000
. 平面图 0.2500000
plan 平面图 0.2500000
highlights 第12 0.1666667
Weeks 第12 0.1666667
12 第12 0.6666667
mushy 糊状 0.1666667
-- 糊状 0.3333333
mush 糊状 0.5000000
between 介乎 0.8000000
PDPs 介乎 0.2000000
electric 呼唏 0.5000000
hush 呼唏 0.5000000
Jr 多萝西·黛 0.5000000
King 多萝西·黛 0.5000000
Blair Blair 1.0000000
hitting 打中 0.0909091
slaps 打中 0.0909091
bullets 打中 0.0909091
hit 打中 0.1818182
kill 打中 0.2727273
entered 打中 0.0909091
something 打中 0.1818182
Richard 理查德·道金斯 0.5000000
Dawkins 理查德·道金斯 0.5000000
the 这边 0.0114943
here 这边 0.3448276
over 这边 0.0977011
way 这边 0.0574713
you 这边 0.0229885
NULL 这边 0.0402299
come 这边 0.0114943
There 这边 0.0057471
is 这边 0.0172414
passenger 这边 0.0057471
on 这边 0.0459770
rocks 这边 0.0057471
; 这边 0.0229885
slid 这边 0.0057471
this 这边 0.1206897
there 这边 0.0287356
&apos;re 这边 0.0057471
side 这边 0.1149425
cinder 这边 0.0057471
stairs 这边 0.0114943
and 这边 0.0172414
Bumblebee 大黄蜂 0.1304348
on 大黄蜂 0.1304348
bumblebee 大黄蜂 0.2173913
tomato-pollinating 大黄蜂 0.0434783
AO 大黄蜂 0.1304348
Flight 大黄蜂 0.0869565
bumblebees 大黄蜂 0.1739130
note 大黄蜂 0.0869565
here 在哪 0.0327869
NULL 在哪 0.0491803
know 在哪 0.0491803
beach 在哪 0.0163934
, 在哪 0.0491803
are 在哪 0.1147541
is 在哪 0.0819672
&quot; 在哪 0.0163934
champagne 在哪 0.0163934
weaker 在哪 0.0163934
physiologically 在哪 0.0163934
. 在哪 0.0491803
responsibilities 在哪 0.0163934
three-orbital 在哪 0.0163934
either 在哪 0.0163934
dunes 在哪 0.0163934
where 在哪 0.3442623
? 在哪 0.0819672
NULL 安全区 0.5000000
secure 安全区 0.5000000
look 反恭 1.0000000
Johanna Johanna 1.0000000
expecting 预计 0.0441176
NULL 预计 0.1911765
would 预计 0.0441176
predict 预计 0.1029412
come 预计 0.0147059
into 预计 0.0294118
predicted 预计 0.0588235
anticipate 预计 0.0147059
to 预计 0.0294118
have 预计 0.0294118
estimated 预计 0.0588235
expect 预计 0.0588235
projected 预计 0.0735294
expected 预计 0.1176471
figured 预计 0.0147059
overshot 预计 0.0147059
anticipated 预计 0.0294118
2050 预计 0.0294118
&apos;re 预计 0.0294118
year 预计 0.0147059
carts 色 0.0384615
the 色 0.1153846
NULL 色 0.2692308
shiny 色 0.0384615
, 色 0.0769231
ground 色 0.0384615
white 色 0.0384615
color 色 0.1923077
Schwinn 色 0.0384615
tan 色 0.0384615
ink 色 0.0384615
Original 色 0.0384615
productivity 色 0.0384615
NULL 本垒打 1.0000000
fallibility 不可靠性 1.0000000
Kilmer 打油诗 1.0000000
records 大碟 0.5000000
LP 大碟 0.5000000
30 埃德蒙·希拉里 0.5000000
Edmund 埃德蒙·希拉里 0.5000000
million 一亿六千万 0.5000000
160 一亿六千万 0.5000000
A 大写 0.1250000
NULL 大写 0.1250000
capital 大写 0.7500000
p.m. 每到 0.5000000
2 每到 0.5000000
NULL 透透气 0.5000000
pussy-cat 透透气 0.5000000
457 457 1.0000000
emotional 不形于 1.0000000
principle 描计 1.0000000
NULL 2维 1.0000000
few 几下 0.5000000
pumps 几下 0.5000000
small 小而 0.5000000
NULL 小而 0.3333333
, 小而 0.1666667
angel 天使 0.2926829
pixies 天使 0.0243902
or 天使 0.0487805
angels 天使 0.5609756
, 天使 0.0243902
Angel 天使 0.0487805
, 不连贯 1.0000000
out 险境 0.2000000
trouble 险境 0.2000000
NULL 险境 0.2000000
. 险境 0.2000000
risk 险境 0.2000000
off-site 装置外 1.0000000
NULL 玲珑 0.5000000
dancer 玲珑 0.2500000
and 玲珑 0.2500000
dead 干花 1.0000000
Hadid Hadid 1.0000000
will 屡屡 0.5000000
exchange 屡屡 0.5000000
paradoxically 矛盾 0.0071942
contradictions 矛盾 0.0719424
fight 矛盾 0.0071942
that 矛盾 0.0215827
paradox 矛盾 0.0935252
resolve 矛盾 0.0143885
integrated 矛盾 0.0071942
contradictory 矛盾 0.0431655
conflicts 矛盾 0.0143885
conflict 矛盾 0.1223022
twin 矛盾 0.0071942
paradoxical 矛盾 0.0287770
tension 矛盾 0.0287770
resolution 矛盾 0.0431655
with 矛盾 0.0071942
team 矛盾 0.0071942
though 矛盾 0.0071942
NULL 矛盾 0.1079137
elephants 矛盾 0.0071942
is 矛盾 0.0071942
dilemma 矛盾 0.0431655
incoherent 矛盾 0.0071942
. 矛盾 0.0071942
con 矛盾 0.0071942
puzzles 矛盾 0.0071942
contradict 矛盾 0.0071942
clash 矛盾 0.0071942
ambivalent 矛盾 0.0143885
afraid 矛盾 0.0143885
conflicted 矛盾 0.0359712
contradicting 矛盾 0.0071942
contradiction 矛盾 0.1582734
conflicting 矛盾 0.0287770
, 练成 1.0000000
heterodoxies 异端 1.0000000
Drexler 世界末日 1.0000000
? 掌 0.2500000
generations 掌 0.2500000
NULL 掌 0.2500000
palm 掌 0.2500000
NULL 编进 0.7500000
phases 编进 0.2500000
lowest-cost 配销 1.0000000
thousand 一千八百三十四 0.5000000
one 一千八百三十四 0.5000000
theme 复述 1.0000000
copulate 交配 0.0416667
NULL 交配 0.0555556
breeding 交配 0.0277778
mated 交配 0.0138889
to 交配 0.0416667
have 交配 0.0694444
. 交配 0.0277778
virgin 交配 0.0277778
copulation 交配 0.0277778
it 交配 0.0138889
sex 交配 0.0972222
mating 交配 0.2500000
flight 交配 0.0138889
love 交配 0.0277778
with 交配 0.0277778
mate 交配 0.2361111
used 各显神通 0.5000000
activities 各显神通 0.5000000
yes 耶 0.1538462
sneakers 耶 0.0769231
. 耶 0.0769231
, 耶 0.0769231
yeah 耶 0.3846154
yay 耶 0.2307692
function 性能力 0.5000000
sexual 性能力 0.5000000
recombination 同源 0.2500000
NULL 同源 0.1250000
diagraph 同源 0.1250000
homologous 同源 0.3750000
kindred 同源 0.1250000
Nin ∙宁 1.0000000
configurations 熵值 0.0425532
high 熵值 0.1063830
entropy 熵值 0.5319149
lower 熵值 0.0638298
low 熵值 0.1914894
many 熵值 0.0425532
sequences 熵值 0.0212766
attended 当了 0.1428571
NULL 当了 0.1428571
a 当了 0.4285714
all 当了 0.1428571
cab 当了 0.1428571
Kindle 玩么 1.0000000
liberal 自由派 0.3055556
for 自由派 0.0555556
crux 自由派 0.0277778
are 自由派 0.0833333
, 自由派 0.0277778
liberals 自由派 0.4722222
plotted 自由派 0.0277778
0.4-second 0.4 0.2000000
0.4 0.4 0.6000000
line 0.4 0.2000000
Jean-Michel 米歇尔 0.3333333
Basquiat 米歇尔 0.3333333
Michel 米歇尔 0.3333333
hurtful 言说 0.5000000
NULL 言说 0.5000000
eye 看眼 1.0000000
. 崩塌了 0.5000000
suddenly 崩塌了 0.5000000
Kesseler 凯斯勒 1.0000000
NULL 巴塞罗纳 1.0000000
blood 高血压 0.0454545
easy 高血压 0.0454545
high 高血压 0.1818182
pressure 高血压 0.0909091
NULL 高血压 0.0909091
hypertension 高血压 0.4545455
pre-hypertension 高血压 0.0909091
NULL 消遣 0.1428571
pastime 消遣 0.2857143
joyful 消遣 0.1428571
fun 消遣 0.4285714
the 外交 0.0112360
interviewee 外交 0.0112360
diplomatically 外交 0.0224719
needs 外交 0.0112360
along 外交 0.0112360
advise 外交 0.0112360
diplomatic 外交 0.1348315
Foreign 外交 0.0337079
diplomats 外交 0.0561798
foreign 外交 0.2921348
coming 外交 0.0112360
diplomacy 外交 0.3707865
ambassadors 外交 0.0112360
Kosovars 外交 0.0112360
nudity 裸女 0.5000000
gargoyles 裸女 0.5000000
leading Iqbal 0.5000000
NULL Iqbal 0.5000000
a 原子 0.0233918
NULL 原子 0.0467836
of 原子 0.0058480
atomic-force 原子 0.0116959
helium 原子 0.0350877
hydrogen 原子 0.0058480
molecules 原子 0.0058480
merge 原子 0.0058480
nuclear 原子 0.0175439
atom 原子 0.1345029
enters 原子 0.0058480
. 原子 0.0175439
bonding 原子 0.0058480
iron 原子 0.0058480
atoms 原子 0.5146199
Atomics 原子 0.0058480
carbon 原子 0.0058480
okay 原子 0.0058480
atomic 原子 0.0526316
diatomic 原子 0.0116959
diameters 原子 0.0058480
little 原子 0.0058480
deuterium 原子 0.0116959
clouds 原子 0.0116959
tritium 原子 0.0116959
an 原子 0.0175439
silicon 原子 0.0116959
sleepovers 过夜 0.2000000
NULL 过夜 0.2000000
place 过夜 0.2000000
boats 过夜 0.2000000
stay 过夜 0.2000000
, 来定 1.0000000
, 抄底 1.0000000
finish 像蜡 0.5000000
waxy 像蜡 0.5000000
NULL 性为 1.0000000
Arduino Arduino 0.9259259
NULL Arduino 0.0740741
Kibera 商业街 1.0000000
village Pieter 0.3333333
Pieter Pieter 0.6666667
the 马拉松 0.0370370
ultramarathons 马拉松 0.0185185
NULL 马拉松 0.0370370
ultra-marathoner 马拉松 0.0185185
mashathons 马拉松 0.0185185
marathon 马拉松 0.5185185
routes 马拉松 0.0185185
run 马拉松 0.0185185
. 马拉松 0.0370370
runners 马拉松 0.0555556
running 马拉松 0.0185185
26.2 马拉松 0.0185185
BMA 马拉松 0.0185185
marathons 马拉松 0.1111111
guys 马拉松 0.0185185
mega-marathons 马拉松 0.0185185
runner 马拉松 0.0185185
Pouring 倾盆 1.0000000
Fukushima 福岛 1.0000000
messing 守己 1.0000000
one-to-many 一对多 0.3333333
many 一对多 0.3333333
process 一对多 0.3333333
husbands genes 0.2000000
30,000 genes 0.4000000
genes genes 0.4000000
to 忠告 0.0833333
dancers 忠告 0.0833333
them 忠告 0.1666667
give 忠告 0.0833333
advice 忠告 0.5000000
dreamer 忠告 0.0833333
sweat 大大汗 0.5000000
. 大大汗 0.5000000
shared 与众 1.0000000
, 不怀好意 1.0000000
so 拍手声 1.0000000
NULL 亚当 0.0144928
AO 亚当 0.3043478
Adam 亚当 0.6666667
yeah 亚当 0.0144928
and 俩人 0.3333333
two 俩人 0.6666667
Gando 冈多 1.0000000
his 手和胸 1.0000000
Flintoff Flintoff 1.0000000
Diop Diop 0.3333333
Cheikh Diop 0.3333333
Anta Diop 0.3333333
TUGs Aethon 1.0000000
long-playing 长时间 0.0172414
NULL 长时间 0.0517241
very 长时间 0.0517241
a 长时间 0.1379310
for 长时间 0.0862069
time 长时间 0.2758621
long-duration 长时间 0.0172414
long 长时间 0.3620690
behind 跳过 0.0294118
get-to-know-you 跳过 0.0294118
jumped 跳过 0.0588235
skips 跳过 0.0588235
going 跳过 0.0588235
over 跳过 0.1176471
commercials 跳过 0.0294118
NULL 跳过 0.1176471
brickless 跳过 0.0294118
shoulder 跳过 0.0294118
ahead 跳过 0.0294118
skip 跳过 0.3529412
skipping 跳过 0.0588235
little 再讲个 1.0000000
what 这有 0.1333333
situation 这有 0.0333333
NULL 这有 0.0333333
did 这有 0.0666667
, 这有 0.1666667
is 这有 0.0666667
possibly 这有 0.0333333
there 这有 0.2000000
wrong 这有 0.0333333
be 这有 0.1000000
current 这有 0.0333333
with 这有 0.1000000
costs 比球 0.3333333
a 比球 0.3333333
dollar 比球 0.3333333
caretakers 看护人 0.5000000
. 看护人 0.2500000
caregivers 看护人 0.2500000
NULL 口水 0.3333333
saliva 口水 0.6666667
anymore 视而不见了 1.0000000
basis 考查 1.0000000
half 细语 0.1666667
a 细语 0.3333333
whisper 细语 0.5000000
receptacle 插头 0.0833333
plug 插头 0.6666667
NULL 插头 0.0833333
a 插头 0.0833333
screwed 插头 0.0833333
Naxalite 纳萨尔 1.0000000
dung 粪 0.5000000
climbing 粪 0.1000000
pellet 粪 0.1000000
ball 粪 0.3000000
NULL 受限制 1.0000000
Gombe 贡贝 1.0000000
ball 脚掌 1.0000000
generations 代代相传 0.8333333
NULL 代代相传 0.1666667
NULL 祖 0.5000000
grandaddy 祖 0.5000000
non-governmental 非政府性 1.0000000
essentially 不可战胜 0.1250000
untouchable 不可战胜 0.1250000
invincible 不可战胜 0.1250000
point 不可战胜 0.1250000
was 不可战胜 0.1250000
this 不可战胜 0.1250000
unconquerable 不可战胜 0.1250000
unbeatable 不可战胜 0.1250000
chart 1390年 0.3333333
drawn 1390年 0.3333333
geomantic 1390年 0.3333333
assembly 恨意 1.0000000
the 整篇 0.5000000
article 整篇 0.2500000
equation 整篇 0.2500000
amid 纷繁 0.1000000
diverse 纷繁 0.2000000
NULL 纷繁 0.4000000
complex 纷繁 0.1000000
are 纷繁 0.2000000
NULL 行性 1.0000000
Messerschmitt Me-109 0.5000000
ME109 Me-109 0.5000000
draw 游人 0.3333333
part 游人 0.3333333
alleys 游人 0.3333333
evolvability 发展性 1.0000000
eye 巨眼 1.0000000
head 熊一 1.0000000
NULL 灌满 0.6666667
sink 灌满 0.3333333
changing 差一点 0.1250000
almost 差一点 0.1250000
eyelash 差一点 0.1250000
nearly 差一点 0.1250000
than 差一点 0.1250000
we 差一点 0.1250000
an 差一点 0.2500000
too 太热 0.3333333
hot 太热 0.6666667
NULL 苏雷纳斯 1.0000000
interrogator 质询 0.5000000
ask 质询 0.5000000
city 新馆 0.5000000
Metz 新馆 0.5000000
, ｢嗯 1.0000000
properly 演好 0.5000000
mime 演好 0.5000000
abysmal 兰却 0.3333333
Len 兰却 0.3333333
an 兰却 0.3333333
NULL 信誓旦旦 0.2500000
great 信誓旦旦 0.5000000
promise 信誓旦旦 0.2500000
planning 节育 0.3333333
you 节育 0.1111111
contraceptives 节育 0.2222222
pro-family 节育 0.1111111
family 节育 0.2222222
so 祝 0.0882353
luck 祝 0.1176471
fingers 祝 0.0294118
NULL 祝 0.0588235
crust 祝 0.0294118
Happy 祝 0.0588235
good 祝 0.2058824
bless 祝 0.0294118
wish 祝 0.1470588
thank 祝 0.0294118
have 祝 0.0882353
I 祝 0.0882353
and 祝 0.0294118
spread 冲出 0.1111111
out 冲出 0.4444444
through 冲出 0.2222222
bash 冲出 0.1111111
bursts 冲出 0.1111111
girls 女子 0.0625000
&apos;s 女子 0.1250000
women 女子 0.2083333
&apos; 女子 0.0416667
NULL 女子 0.0625000
a 女子 0.0208333
track 女子 0.0208333
Palestinian 女子 0.0208333
by 女子 0.0833333
woman 女子 0.3125000
convinces 女子 0.0208333
all-women 女子 0.0208333
readily 食糖 0.3333333
available 食糖 0.3333333
sugar 食糖 0.3333333
the 保证 0.0024876
ensure 保证 0.0373134
you 保证 0.0572139
that 保证 0.1965174
guarantees 保证 0.0049751
facilitates 保证 0.0024876
keep 保证 0.0223881
guaranteed 保证 0.0199005
reassures 保证 0.0024876
preserve 保证 0.0024876
publisher 保证 0.0024876
freeze 保证 0.0024876
Shah 保证 0.0024876
for 保证 0.0223881
depth 保证 0.0024876
assure 保证 0.0447761
thee 保证 0.0024876
doesn 保证 0.0024876
pledged 保证 0.0024876
promise 保证 0.0920398
NULL 保证 0.0721393
of 保证 0.0049751
bet 保证 0.0024876
assurance 保证 0.0099502
all 保证 0.0024876
to 保证 0.0522388
will 保证 0.0174129
flex 保证 0.0024876
us 保证 0.0024876
quality 保证 0.0049751
promised 保证 0.0099502
make 保证 0.0771144
going 保证 0.0049751
responsible 保证 0.0024876
insured 保证 0.0024876
sure 保证 0.1019900
preserving 保证 0.0024876
implement 保证 0.0074627
can 保证 0.0124378
guarantee 保证 0.0820896
130,000 13万 0.5000000
troops 13万 0.5000000
NULL 刀剑 1.0000000
NULL 稍好 1.0000000
NULL 胃肠道 1.0000000
dramas 悲喜剧 1.0000000
had 泪流 0.2500000
rolling 泪流 0.2500000
was 泪流 0.2500000
tears 泪流 0.2500000
Eetwidomayloh 腾腾 0.5000000
greets 腾腾 0.5000000
the 手工 0.0112360
a 手工 0.0224719
manual 手工 0.0337079
reverse-engineer 手工 0.0112360
in 手工 0.0112360
occupations 手工 0.0224719
hand-carved 手工 0.0224719
skilled 手工 0.0112360
handmade 手工 0.0674157
by 手工 0.1123596
class 手工 0.0112360
and 手工 0.0112360
with 手工 0.0337079
completely 手工 0.0112360
NULL 手工 0.1011236
of 手工 0.0337079
project 手工 0.0112360
all 手工 0.0112360
manually 手工 0.0449438
hand-cut 手工 0.0112360
hand-drawn 手工 0.0112360
. 手工 0.0112360
artisanal 手工 0.0561798
origami 手工 0.0224719
legs 手工 0.0112360
juxtapose 手工 0.0112360
biomaterials 手工 0.0112360
peg 手工 0.0112360
techno-crafted 手工 0.0112360
hand 手工 0.2022472
non-manual 手工 0.0112360
handcrafted 手工 0.0224719
gefilte 鱼丸子 0.5000000
fish 鱼丸子 0.5000000
history 气候史 0.5000000
climate 气候史 0.5000000
Alexander 亚历山大·格拉 1.0000000
voucher 优惠券 0.0909091
coupons 优惠券 0.2727273
vouchers 优惠券 0.0909091
and 优惠券 0.4545455
coupon 优惠券 0.0909091
million 三千万 0.4285714
30 三千万 0.4285714
book 三千万 0.1428571
Svante 斯万特 1.0000000
NULL 鬼怪 0.5000000
spooky 鬼怪 0.5000000
scooter 上车 0.0769231
on 上车 0.0769231
the 上车 0.6153846
bus 上车 0.0769231
NULL 上车 0.1538462
NULL 功不可没 0.5000000
America 功不可没 0.5000000
below 下图 1.0000000
who McCrea 0.5000000
McCrea McCrea 0.5000000
vision 诱人 0.0555556
NULL 诱人 0.1666667
enticing 诱人 0.0555556
cybercrime 诱人 0.0555556
opening 诱人 0.0555556
attractive 诱人 0.1111111
as 诱人 0.1111111
. 诱人 0.0555556
tempting 诱人 0.2222222
stunning 诱人 0.0555556
GetRich.com. 诱人 0.0555556
the 保存 0.0242424
conserved 保存 0.0121212
, 保存 0.0121212
Buddhas 保存 0.0060606
save 保存 0.0787879
keeps 保存 0.0121212
conservation 保存 0.0181818
could 保存 0.0121212
keep 保存 0.0424242
in 保存 0.0242424
stored 保存 0.0424242
specimen 保存 0.0060606
preserve 保存 0.0787879
conserving 保存 0.0181818
safe 保存 0.0121212
records 保存 0.0060606
preserved 保存 0.0545455
cryopreservation 保存 0.0121212
by 保存 0.0121212
collected 保存 0.0060606
&apos;re 保存 0.0242424
and 保存 0.0060606
exhibition 保存 0.0060606
they 保存 0.0242424
NULL 保存 0.1515152
of 保存 0.0060606
protect 保存 0.0060606
temperatures 保存 0.0060606
oxygen 保存 0.0121212
at 保存 0.0242424
. 保存 0.0121212
intact 保存 0.0181818
fragile 保存 0.0060606
saved 保存 0.0545455
store 保存 0.0363636
preserving 保存 0.0181818
message 保存 0.0060606
preservation 保存 0.0606061
keeping 保存 0.0242424
posterity 保存 0.0060606
Quran Feki 0.5000000
Shereen Feki 0.5000000
crest 顶冠 0.5000000
. 顶冠 0.5000000
A 1564年 0.5000000
and 1564年 0.5000000
surface 杯水车薪 0.0833333
the 杯水车薪 0.1666667
NULL 杯水车薪 0.0833333
scratching 杯水车薪 0.0833333
sea 杯水车薪 0.0833333
drop 杯水车薪 0.1666667
bucket 杯水车薪 0.0833333
difference 杯水车薪 0.0833333
in 杯水车薪 0.1666667
&quot; 哈哈哈哈 0.5000000
Huhuhuhuhuhuhuhahahahaha 哈哈哈哈 0.5000000
professor Kellar 1.0000000
just 再想 0.5000000
should 再想 0.2500000
door-owner 再想 0.2500000
dispersants 化油剂 1.0000000
something 行动会 1.0000000
Aboriginal 哥们儿 0.0833333
guys 哥们儿 0.0833333
, 哥们儿 0.5833333
homie 哥们儿 0.0833333
dude 哥们儿 0.0833333
mate 哥们儿 0.0833333
first 起先 0.4615385
NULL 起先 0.2307692
wonder 起先 0.0769231
I 起先 0.1538462
originally 起先 0.0769231
open 见了 0.1250000
&quot; 见了 0.1250000
. 见了 0.5000000
goodbye 见了 0.1250000
commonplace 见了 0.1250000
fond 对猪 1.0000000
they 长相 0.0769231
NULL 长相 0.1153846
faces 长相 0.0384615
looked 长相 0.1153846
look 长相 0.1538462
face 长相 0.0769231
like 长相 0.2692308
rather 长相 0.0384615
mediocre 长相 0.0384615
her 长相 0.0769231
Carta 大宪章 0.4000000
Magna 大宪章 0.4000000
far 大宪章 0.2000000
half 2500 0.1666667
2,500 2500 0.6666667
use 2500 0.0833333
employs 2500 0.0833333
taxes 讲碳税 1.0000000
NULL 科克 0.3333333
Shinnecock 科克 0.1666667
Cork 科克 0.5000000
they 新加坡 0.0222222
NULL 新加坡 0.0666667
Singaporean 新加坡 0.0666667
Singapore 新加坡 0.7777778
Singaporean-based 新加坡 0.0222222
, 新加坡 0.0222222
Ang 新加坡 0.0222222
NULL 鬼似的 1.0000000
RSI 劳损 1.0000000
the 微积分 0.0571429
Calculus 微积分 0.0571429
language 微积分 0.0285714
NULL 微积分 0.0571429
calculus-based 微积分 0.0571429
calculus 微积分 0.7428571
made 会动 0.4000000
ever 会动 0.2000000
move 会动 0.2000000
moved 会动 0.2000000
want 提出 0.0072072
complaint 提出 0.0018018
which 提出 0.0108108
come 提出 0.0270270
forward 提出 0.0198198
suggestion 提出 0.0054054
Brunel 提出 0.0018018
, 提出 0.0018018
put 提出 0.0306306
that 提出 0.0054054
Myles 提出 0.0018018
threw 提出 0.0036036
on 提出 0.0036036
propose 提出 0.0198198
who 提出 0.0036036
challenged 提出 0.0036036
suggested 提出 0.0162162
presented 提出 0.0108108
pose 提出 0.0072072
offered 提出 0.0054054
request 提出 0.0018018
what 提出 0.0090090
cautionary 提出 0.0018018
combustible 提出 0.0018018
Pythagoras 提出 0.0018018
proposition 提出 0.0018018
Babbage 提出 0.0018018
blazed 提出 0.0018018
came 提出 0.0378378
coauthors 提出 0.0018018
some 提出 0.0054054
with 提出 0.0666667
Lorenzetti 提出 0.0018018
of 提出 0.0018018
we 提出 0.0018018
to 提出 0.0450450
asking 提出 0.0144144
asked 提出 0.0540541
suggest 提出 0.0036036
raised 提出 0.0072072
1967 提出 0.0018018
ago 提出 0.0036036
spoken 提出 0.0018018
proposing 提出 0.0036036
the 提出 0.0270270
Geographic 提出 0.0018018
a 提出 0.0018018
offer 提出 0.0090090
proposed 提出 0.0378378
mentioning 提出 0.0018018
proposal 提出 0.0018018
new 提出 0.0018018
defined 提出 0.0036036
suggesting 提出 0.0072072
ask 提出 0.0522523
questions 提出 0.0396396
describe 提出 0.0036036
by 提出 0.0054054
posed 提出 0.0126126
invented 提出 0.0018018
theory 提出 0.0072072
introduced 提出 0.0036036
I 提出 0.0108108
idea 提出 0.0144144
The 提出 0.0054054
issues 提出 0.0054054
NULL 提出 0.1459459
up 提出 0.0594595
hypothesis-generating 提出 0.0018018
had 提出 0.0072072
asks 提出 0.0018018
make 提出 0.0234234
first 提出 0.0018018
suggestions 提出 0.0072072
brainstorm 提出 0.0018018
question 提出 0.0144144
was 提出 0.0036036
&apos;m 提出 0.0018018
present 提出 0.0018018
ideas 提出 0.0108108
NULL 要从 0.1176471
it 要从 0.1176471
describe 要从 0.0588235
needed 要从 0.0588235
starts 要从 0.0588235
to 要从 0.2941176
began 要从 0.1176471
household 要从 0.0588235
from 要从 0.1176471
well-told 动听 0.3333333
words 动听 0.6666667
I 撞进 0.2000000
crashed 撞进 0.2000000
into 撞进 0.2000000
smashing 撞进 0.2000000
hit 撞进 0.2000000
elated 极了 0.0384615
NULL 极了 0.0384615
delighted 极了 0.0384615
beautiful 极了 0.0769231
delicious 极了 0.0384615
fantastic 极了 0.0769231
. 极了 0.4230769
love 极了 0.1538462
loved 极了 0.0769231
awesome 极了 0.0384615
Life 百科 0.1428571
wikis 百科 0.2857143
Encyclopedia 百科 0.2857143
EOL 百科 0.2857143
NULL 冶炼 1.0000000
Prussians 普鲁士人 1.0000000
pow padepachetchki 1.0000000
NULL 哥伦布市 1.0000000
NULL 炸药桶 1.0000000
Schwitters 创作于 1.0000000
Tulley 吉佛·图利 1.0000000
giants 巨兽 1.0000000
Bleecker 翻唱 1.0000000
NULL 星期四 0.0666667
look 星期四 0.0666667
already 星期四 0.0666667
carp 星期四 0.0666667
no-talk 星期四 0.0666667
I 星期四 0.1333333
likely 星期四 0.0666667
Thursday 星期四 0.4666667
ago 安乐椅 1.0000000
workforce 在职场 1.0000000
&apos;s 巴托克 0.4545455
Bartok 巴托克 0.4545455
Bela 巴托克 0.0909091
the 案发 0.1428571
he 案发 0.1428571
photographed 案发 0.2857143
alibi 案发 0.4285714
owner 巴乔 1.0000000
sun 落日 0.5000000
NULL 落日 0.5000000
coming 真人版 0.2500000
book 真人版 0.2500000
comic 真人版 0.2500000
preferred 真人版 0.2500000
President 巴马签 1.0000000
Star 大战 0.0840336
wars 大战 0.0336134
I. 大战 0.0336134
NULL 大战 0.0588235
battle 大战 0.0168067
, 大战 0.0084034
war 大战 0.0336134
War 大战 0.2521008
&quot; 大战 0.0504202
World 大战 0.1932773
Wars 大战 0.1008403
II 大战 0.0756303
financial 大战 0.0084034
crisis 大战 0.0084034
Spacewar 大战 0.0084034
First 大战 0.0084034
Second 大战 0.0252101
Judy 朱蒂 0.8333333
and 朱蒂 0.1666667
mash 捣成泥 1.0000000
chairs Venter 0.0769231
Venter Venter 0.8461538
by Venter 0.0769231
NULL 粉丝们 0.3333333
fans 粉丝们 0.6666667
these 词语 0.0138889
NULL 词语 0.0833333
it 词语 0.0416667
terms 词语 0.0277778
them 词语 0.0277778
coined 词语 0.0277778
phrases 词语 0.0277778
words 词语 0.3472222
like 词语 0.0277778
&quot; 词语 0.0138889
chloride 词语 0.0138889
word 词语 0.2222222
. 词语 0.0277778
pairs 词语 0.0138889
phrase 词语 0.0694444
kindred 词语 0.0138889
; 惠 0.3333333
thumb 惠 0.3333333
feels 惠 0.3333333
the 脚尖 0.8000000
points 脚尖 0.2000000
atoms 氧原子 0.4000000
oxygen 氧原子 0.6000000
meaningfully 卓有 0.2500000
brilliant 卓有 0.1666667
NULL 卓有 0.2500000
their 卓有 0.1666667
has 卓有 0.0833333
put 卓有 0.0833333
Huck 哈克都 1.0000000
NULL 长卷 1.0000000
atoms 原子时 1.0000000
NULL 无名英雄 1.0000000
NULL 给了 0.0384615
children 给了 0.0384615
gives 给了 0.1538462
offspring 给了 0.0769231
exemption 给了 0.0384615
to 给了 0.1153846
their 给了 0.0769231
gave 给了 0.0769231
red 给了 0.0384615
voted 给了 0.1538462
us 给了 0.1538462
&apos;ve 给了 0.0384615
the 越多 0.3220339
NULL 越多 0.0169492
recline 越多 0.0169492
as 越多 0.0338983
have 越多 0.0338983
arguing 越多 0.0169492
long 越多 0.0169492
. 越多 0.0338983
mountains 越多 0.0169492
more 越多 0.4915254
&apos;s 支持率 0.0769231
penalty 支持率 0.0769231
NULL 支持率 0.2307692
approval 支持率 0.3076923
ratings 支持率 0.1538462
fallen 支持率 0.0769231
rating 支持率 0.0769231
Venereal 判罪 0.2500000
Diseases 判罪 0.2500000
impose 判罪 0.2500000
down 判罪 0.2500000
jeez 叹气 0.2500000
hear 叹气 0.2500000
gasp 叹气 0.2500000
this 叹气 0.2500000
house 识别码 0.2500000
ID 识别码 0.2500000
codes 识别码 0.2500000
anonymous 识别码 0.2500000
strong 壮的 1.0000000
the 时钟 0.0222222
&apos;s 时钟 0.0222222
&apos; 时钟 0.1111111
Long 时钟 0.0222222
NULL 时钟 0.0888889
ticking 时钟 0.0222222
inverse 时钟 0.0222222
clock 时钟 0.5333333
Clock 时钟 0.0222222
clocks 时钟 0.1333333
NULL 生意经 1.0000000
Rosnay 如斯 0.3333333
Joël 如斯 0.3333333
funded 如斯 0.3333333
diffusion 细胞膜 0.0588235
membrane 细胞膜 0.4117647
cell 细胞膜 0.2352941
membranes 细胞膜 0.2941176
? 深恶痛绝 0.2500000
right 深恶痛绝 0.2500000
abomination 深恶痛绝 0.2500000
, 深恶痛绝 0.2500000
package 揽子 1.0000000
the 低端 0.5000000
chain 低端 0.2000000
NULL 低端 0.1000000
lower 低端 0.1000000
low-tech 低端 0.1000000
iBOTs iBOTs 1.0000000
sky 空拍 0.5000000
June 空拍 0.5000000
NULL 服了 0.2000000
sodomizing 服了 0.2000000
convinced 服了 0.2000000
You 服了 0.2000000
Eyjafjallajokull 服了 0.2000000
bit 赏月 0.5000000
Moon 赏月 0.5000000
threat 够成 1.0000000
crying 高呼 1.0000000
slushy 麦芽糖 1.0000000
, 鲾鲼 0.2000000
ray 鲾鲼 0.2000000
manta 鲾鲼 0.6000000
NULL 调色版 1.0000000
Stagecoach 关山 1.0000000
loaded 加载 0.2000000
loads 加载 0.2000000
load 加载 0.6000000
the 地标 0.0588235
NULL 地标 0.0588235
landmarks 地标 0.1764706
, 地标 0.1176471
landmarked 地标 0.0588235
else 地标 0.0588235
by 地标 0.1176471
? 地标 0.0588235
sights 地标 0.0588235
landscape 地标 0.0588235
landmark 地标 0.1764706
NULL Ravi 1.0000000
ages 分层 0.1250000
heterarchy 分层 0.3750000
layered 分层 0.2500000
hierarchical 分层 0.2500000
40 35－40 1.0000000
talk dirty 1.0000000
Mortgage 负责人 0.0161290
Continents 负责人 0.0161290
the 负责人 0.3225806
Management 负责人 0.0161290
NULL 负责人 0.0967742
of 负责人 0.1935484
Caritas 负责人 0.0161290
guy 负责人 0.0161290
director 负责人 0.0806452
Bankers 负责人 0.0161290
superintendent 负责人 0.0322581
at 负责人 0.0161290
head 负责人 0.0967742
directors 负责人 0.0322581
Capital 负责人 0.0161290
not-for-profit 负责人 0.0161290
NULL 科恩 0.1818182
you 科恩 0.2727273
thank 科恩 0.0909091
Cohen 科恩 0.2727273
quick 科恩 0.0909091
Frank 科恩 0.0909091
philanthropy 慈善的 1.0000000
chitinous 角质 0.5000000
matrix 角质 0.5000000
destroying 糟蹋 0.2500000
NULL 糟蹋 0.1250000
it 糟蹋 0.1250000
rape 糟蹋 0.1250000
fine 糟蹋 0.1250000
mess 糟蹋 0.1250000
manner 糟蹋 0.1250000
Grant Grant 1.0000000
weep 哭泣 0.1190476
NULL 哭泣 0.0476190
cry 哭泣 0.1904762
, 哭泣 0.0476190
tears 哭泣 0.0238095
crying 哭泣 0.3333333
. 哭泣 0.0476190
weeps 哭泣 0.0238095
Brakarz 哭泣 0.0238095
beside 哭泣 0.0238095
weeping 哭泣 0.0714286
grieving 哭泣 0.0476190
Coulter 检测仪 0.1428571
NULL 检测仪 0.1428571
. 检测仪 0.1428571
detectors 检测仪 0.1428571
counter 检测仪 0.1428571
developed 检测仪 0.1428571
device 检测仪 0.1428571
&quot; 2001 0.0500000
NULL 2001 0.0500000
a 2001 0.2000000
: 2001 0.1500000
2001 2001 0.5500000
. 妙极了 0.6666667
lovely 妙极了 0.3333333
Futurelab Electronica 0.5000000
Lieberman Electronica 0.5000000
Krasnoyarsk 雅茨克 1.0000000
&apos;s 主意 0.0080645
enlightened 主意 0.0040323
opinion 主意 0.0040323
shocked 主意 0.0040323
soon 主意 0.0040323
farmland 主意 0.0040323
better 主意 0.0040323
wired 主意 0.0040323
awesome 主意 0.0040323
change 主意 0.0040323
came 主意 0.0040323
idea 主意 0.5282258
sounded 主意 0.0040323
minds 主意 0.0161290
mind 主意 0.0241935
send 主意 0.0040323
NULL 主意 0.0685484
crazy 主意 0.0080645
is 主意 0.0080645
to 主意 0.0080645
bad 主意 0.0080645
stupid 主意 0.0040323
good 主意 0.0040323
. 主意 0.0927419
great 主意 0.0080645
advice 主意 0.0040323
it 主意 0.0120968
just 主意 0.0120968
brilliant 主意 0.0080645
lab 主意 0.0040323
an 主意 0.0080645
ideas 主意 0.1169355
would 真情 1.0000000
&apos;re 分辨力 1.0000000
the 之举 0.1666667
to 之举 0.1666667
move 之举 0.1666667
. 之举 0.3333333
major 之举 0.1666667
at 嚷 0.3333333
her 嚷 0.3333333
yell 嚷 0.3333333
Olduvai 奥杜威 0.3333333
Gorge 奥杜威 0.6666667
gerontology 老年病学 1.0000000
end 看下来 1.0000000
NULL 亮起 0.1428571
light 亮起 0.4285714
lights 亮起 0.4285714
wash 开入 1.0000000
biogeographic 理学 0.1250000
Science 理学 0.1250000
regard 理学 0.1250000
psychology 理学 0.1250000
NULL 理学 0.2500000
geography 理学 0.1250000
Bachelor 理学 0.1250000
&quot; 不分彼此 0.7500000
or 不分彼此 0.2500000
shortly 小睡 0.3333333
fairly 小睡 0.3333333
asleep 小睡 0.3333333
stride 大步走 1.0000000
NULL Citarella 1.0000000
the 圆圈 0.0250000
circular 圆圈 0.0750000
around 圆圈 0.0500000
NULL 圆圈 0.0250000
you 圆圈 0.0250000
of 圆圈 0.0500000
circle 圆圈 0.3000000
circles 圆圈 0.3750000
beware 圆圈 0.0250000
possible 圆圈 0.0250000
disc 圆圈 0.0250000
I-don 无知 0.0114943
ignorance 无知 0.5287356
NULL 无知 0.0689655
of 无知 0.0229885
gross 无知 0.0114943
argument 无知 0.0114943
innumeracy 无知 0.0114943
Absolute 无知 0.0229885
. 无知 0.0804598
about 无知 0.0229885
grieving 无知 0.0114943
&apos;ant 无知 0.0114943
ignorant 无知 0.1264368
bliss 无知 0.0114943
Words 无知 0.0114943
nonsense 无知 0.0114943
&apos;t-know-it-all 无知 0.0114943
dumber 无知 0.0114943
market 出售 0.0100000
the 出售 0.0100000
NULL 出售 0.0900000
1.50 出售 0.0100000
sale 出售 0.0800000
copies 出售 0.0200000
sell 出售 0.2600000
stores 出售 0.0100000
salable 出售 0.0200000
unsold 出售 0.0100000
shops 出售 0.0100000
. 出售 0.0800000
for 出售 0.0600000
selling 出售 0.1100000
sold 出售 0.2100000
circulation 出售 0.0100000
adhesive 黏贴式 1.0000000
contributors 贡献者 0.5000000
backgrounds 贡献者 0.1666667
contributor 贡献者 0.3333333
dreams 梦寐 1.0000000
microbes 飞沫 0.5000000
flying 飞沫 0.5000000
NULL 踩出 0.5000000
bicyclist 踩出 0.5000000
Minnesota 德卢斯 1.0000000
paper 豁免权 0.3333333
too 豁免权 0.3333333
exempt 豁免权 0.3333333
way 前所 0.2000000
NULL 前所 0.4000000
that 前所 0.4000000
cut 切下 0.8000000
florets 切下 0.2000000
Sal gave 0.5000000
gave gave 0.5000000
MacGregor 石墙 1.0000000
NULL 6千亿 1.0000000
27 27，37 0.5000000
37 27，37 0.5000000
walk 弯了 1.0000000
because 再来说 1.0000000
to 事要 0.4000000
else 事要 0.2000000
something 事要 0.4000000
strange 繁茂 0.2500000
NULL 繁茂 0.2500000
booming 繁茂 0.2500000
exuberance 繁茂 0.2500000
length 施工期 1.0000000
the 现时 0.0555556
what 现时 0.1111111
NULL 现时 0.2222222
, 现时 0.0555556
actually 现时 0.0555556
arguably 现时 0.0555556
now 现时 0.2222222
in 现时 0.0555556
and 现时 0.1111111
fits 现时 0.0555556
trillion 十四万七千亿 0.3333333
14.7 十四万七千亿 0.3333333
. 十四万七千亿 0.3333333
whatever 长期地 1.0000000
martyrdom 殉教 0.5000000
glories 殉教 0.5000000
Just 牛郎 0.5000000
Gigolo 牛郎 0.5000000
... 每口 0.5000000
take 每口 0.5000000
like 象一 0.6666667
looks 象一 0.3333333
. 找到了 1.0000000
NRDC NRDC 1.0000000
probably 理人 0.5000000
learned 理人 0.5000000
the 指挥官们 1.0000000
Laysan 信天翁 0.1000000
Albatross 信天翁 0.2000000
chick 信天翁 0.1000000
albatross 信天翁 0.4000000
leatherback 信天翁 0.1000000
marlin 信天翁 0.1000000
funds 用于 0.0050378
payments 用于 0.0050378
stick 用于 0.0050378
which 用于 0.0100756
that 用于 0.0277078
preparation 用于 0.0025189
malaria 用于 0.0025189
on 用于 0.0302267
dollars 用于 0.0050378
manages 用于 0.0025189
wield 用于 0.0025189
germs 用于 0.0025189
also 用于 0.0075567
staggering 用于 0.0025189
diagnostic 用于 0.0025189
used 用于 0.1309824
applied 用于 0.0075567
and 用于 0.0025189
with 用于 0.0025189
of 用于 0.0100756
rewiring 用于 0.0025189
into 用于 0.0100756
spend 用于 0.0100756
is 用于 0.0201511
being 用于 0.0050378
powers 用于 0.0025189
reclaim 用于 0.0025189
to 用于 0.0780856
dedicated 用于 0.0050378
metaphor 用于 0.0025189
education 用于 0.0025189
it 用于 0.0151134
part 用于 0.0025189
can 用于 0.0050378
device 用于 0.0025189
scanners 用于 0.0050378
installations 用于 0.0025189
fuel 用于 0.0050378
the 用于 0.0201511
a 用于 0.0050378
buzzes 用于 0.0025189
in 用于 0.0302267
nuclear 用于 0.0025189
farmland 用于 0.0025189
order 用于 0.0025189
&#91; 用于 0.0025189
this 用于 0.0125945
infiltrating 用于 0.0025189
reservoirs 用于 0.0025189
for 用于 0.2317380
treatment 用于 0.0025189
be 用于 0.0176322
development 用于 0.0025189
reserved 用于 0.0050378
metastatic 用于 0.0025189
NULL 用于 0.1007557
mobility 用于 0.0025189
use 用于 0.0654912
been 用于 0.0025189
make 用于 0.0100756
consumed 用于 0.0025189
geomancy 用于 0.0025189
&#93; 用于 0.0050378
hand 用于 0.0050378
runs 用于 0.0050378
checklist 用于 0.0025189
spent 用于 0.0025189
bad 倒了 0.2222222
a 倒了 0.4444444
freaked 倒了 0.1111111
Berlin 倒了 0.1111111
falls 倒了 0.1111111
laugh 逗乐 0.5000000
Everybody 逗乐 0.5000000
the 气层 0.1666667
cheaply 气层 0.1666667
low 气层 0.1666667
atmosphere 气层 0.5000000
Poiseuille 泊肃叶 1.0000000
Uppsala 乌普萨拉 1.0000000
irrational 行为 0.0017730
behaves 行为 0.0044326
which 行为 0.0008865
behaviors 行为 0.0797872
that 行为 0.0097518
, 行为 0.0035461
abuses 行为 0.0008865
Premack 行为 0.0017730
see 行为 0.0026596
losses 行为 0.0008865
violence 行为 0.0053191
our 行为 0.0008865
mercenary 行为 0.0008865
behaviorally 行为 0.0017730
misconduct 行为 0.0008865
business 行为 0.0070922
code 行为 0.0008865
tort 行为 0.0035461
change 行为 0.0026596
what 行为 0.0097518
affect 行为 0.0008865
full-stop 行为 0.0008865
swordfishes 行为 0.0008865
with 行为 0.0008865
tool-using 行为 0.0026596
actions 行为 0.0186170
of 行为 0.0079787
influenced 行为 0.0008865
activities 行为 0.0035461
do 行为 0.0150709
we 行为 0.0017730
Acts 行为 0.0008865
to 行为 0.0008865
recklessness 行为 0.0008865
think 行为 0.0008865
operating 行为 0.0008865
influence 行为 0.0008865
act 行为 0.0398936
rampant 行为 0.0008865
point-to-point 行为 0.0008865
copycat 行为 0.0008865
student-crafted 行为 0.0008865
mistreat 行为 0.0008865
acts 行为 0.0079787
things 行为 0.0062057
paradigm 行为 0.0026596
overreacting 行为 0.0008865
practices 行为 0.0017730
the 行为 0.0008865
human 行为 0.0008865
way 行为 0.0035461
collective 行为 0.0026596
charity 行为 0.0026596
activity 行为 0.0088652
attempt 行为 0.0008865
or 行为 0.0026596
practice 行为 0.0044326
in 行为 0.0088652
aggression 行为 0.0008865
violent 行为 0.0008865
does 行为 0.0008865
about 行为 0.0008865
mallard 行为 0.0017730
backpedaling 行为 0.0008865
for 行为 0.0044326
how 行为 0.0026596
acting 行为 0.0062057
behaved 行为 0.0053191
accountable 行为 0.0008865
social 行为 0.0017730
finance 行为 0.0008865
by 行为 0.0017730
offenses 行为 0.0008865
tension 行为 0.0008865
changes 行为 0.0008865
behavioral 行为 0.0744681
other 行为 0.0008865
arson 行为 0.0008865
be 行为 0.0008865
behave 行为 0.0186170
their 行为 0.0106383
NULL 行为 0.1161348
forced 行为 0.0008865
terms 行为 0.0008865
flies 行为 0.0008865
corrupt 行为 0.0026596
crime 行为 0.0035461
larceny 行为 0.0008865
bullying 行为 0.0008865
having 行为 0.0017730
norm 行为 0.0017730
propagate 行为 0.0008865
doing 行为 0.0168440
sexual 行为 0.0017730
drive 行为 0.0017730
noble 行为 0.0008865
us 行为 0.0008865
. 行为 0.0443262
conduct 行为 0.0017730
engage 行为 0.0008865
Behavior 行为 0.0008865
outlaw 行为 0.0017730
hard-wired 行为 0.0017730
behavior 行为 0.3235816
honor 行为 0.0035461
chewing 行为 0.0017730
pattern 行为 0.0035461
as 行为 0.0017730
rationalizable 行为 0.0008865
action 行为 0.0124113
behaving 行为 0.0026596
savings 行为 0.0008865
performance 行为 0.0035461
itself 行为 0.0017730
president 升为 1.0000000
NULL GPA 1.0000000
the 圆心 0.5000000
center 圆心 0.5000000
people 哈欠 0.5000000
who 哈欠 0.5000000
NULL 大教堂 0.2500000
cathedral 大教堂 0.2500000
. 大教堂 0.2500000
Nativity 大教堂 0.2500000
hubris 自负 0.0714286
arrogance 自负 0.0714286
human 自负 0.1428571
NULL 自负 0.1428571
egos 自负 0.2142857
vain 自负 0.0714286
ego 自负 0.2142857
overconfident 自负 0.0714286
right 来玩转 0.5000000
skipping 来玩转 0.5000000
root 倚 1.0000000
the 交换 0.0080645
exchanger 交换 0.0080645
lore 交换 0.0080645
unwanted 交换 0.0080645
NULL 交换 0.1129032
barter 交换 0.0161290
share 交换 0.0080645
swap 交换 0.0645161
packet 交换 0.0080645
packet-switched 交换 0.0080645
each 交换 0.0080645
for 交换 0.0725806
between 交换 0.0080645
trade 交换 0.0806452
traded 交换 0.0161290
Campanella 交换 0.0080645
trade-offs 交换 0.0080645
trading 交换 0.0403226
exchanged 交换 0.0161290
trade-off 交换 0.0080645
exchanging 交换 0.0564516
and 交换 0.0322581
ideas 交换 0.0080645
exchange 交换 0.3870968
compassionate 同情地 0.5000000
portray 同情地 0.5000000
orchestra 巴基西梅托 1.0000000
NULL 肤色 0.0459770
of 肤色 0.0114943
moderately-to-darkly 肤色 0.0114943
colors 肤色 0.0344828
pigmentation 肤色 0.1149425
color 肤色 0.1954023
darkly 肤色 0.0344828
pigmentations 肤色 0.0114943
skin 肤色 0.3563218
dark-skinned 肤色 0.0114943
pigmented 肤色 0.1034483
toward 肤色 0.0114943
Thandie 肤色 0.0114943
differences 肤色 0.0114943
Skin 肤色 0.0114943
living 肤色 0.0114943
and 肤色 0.0114943
fearless 惧于 1.0000000
count 数数 0.6250000
teeth 数数 0.1250000
counting 数数 0.2500000
Kuhl 特里夏·库尔 1.0000000
the 喷发 0.0833333
NULL 喷发 0.0555556
emitted 喷发 0.0833333
Etna 喷发 0.0277778
345,000 喷发 0.0277778
eruption 喷发 0.1388889
super-eruptions 喷发 0.0277778
volcanic 喷发 0.0833333
erupt 喷发 0.0277778
volcanoes 喷发 0.0833333
emitting 喷发 0.0277778
from 喷发 0.0277778
. 喷发 0.0277778
erupting 喷发 0.1388889
Sicily 喷发 0.0277778
volcano 喷发 0.0277778
Mount 喷发 0.0833333
nodded 点点头 0.5000000
and 点点头 0.5000000
their 采花 1.0000000
Calabi-Yau Calabi-Yau 1.0000000
staples 钉书针 1.0000000
bolts 螺栓 1.0000000
end 回顾性 0.3333333
retrieval 回顾性 0.6666667
the 帆 0.2777778
NULL 帆 0.0555556
sails 帆 0.2222222
sail 帆 0.3888889
expands 帆 0.0555556
beech 山毛榉 1.0000000
the 落实 0.1818182
done 落实 0.1363636
NULL 落实 0.1363636
implemented 落实 0.0909091
subsume 落实 0.0454545
register 落实 0.0454545
to 落实 0.1818182
in 落实 0.0909091
. 落实 0.0454545
counsel 落实 0.0454545
junkyard 恶狗 1.0000000
knifing 陷害 1.0000000
greed 贪欲 1.0000000
funk 车库 0.0169492
NULL 车库 0.0169492
your 车库 0.0677966
garages 车库 0.1016949
yellowcake 车库 0.0169492
garage-door 车库 0.0169492
garage 车库 0.7627119
the 脱口秀 0.0714286
talk 脱口秀 0.2857143
setting 脱口秀 0.0714286
comedy 脱口秀 0.0714286
stand-up 脱口秀 0.4285714
Dean 脱口秀 0.0714286
city 立在 1.0000000
naught 加到 0.1666667
NULL 加到 0.3333333
pile 加到 0.1666667
incorporated 加到 0.1666667
99.999999 加到 0.1666667
Swaptree Swaptree 1.0000000
NULL 急救时 1.0000000
Bang 大爆炸 0.5000000
Big 大爆炸 0.5000000
straightaway 立即 0.0094340
edifying 立即 0.0094340
NULL 立即 0.0660377
snaps 立即 0.0094340
immediate 立即 0.0471698
in 立即 0.0471698
will 立即 0.0283019
emailed 立即 0.0094340
immediately 立即 0.4339623
bookable 立即 0.0094340
it 立即 0.0471698
polio 立即 0.0094340
wheelchair 立即 0.0094340
scene 立即 0.0094340
instantly 立即 0.0471698
starts 立即 0.0094340
right 立即 0.0754717
now 立即 0.0283019
away 立即 0.0566038
started 立即 0.0094340
and 立即 0.0188679
shouldn 立即 0.0094340
corporate 企业型 0.5000000
psychopathy 企业型 0.5000000
punched 一字一句 1.0000000
animators 动画师 1.0000000
percent 三十分 0.6666667
thirty 三十分 0.3333333
NULL 自由民 1.0000000
and Mahato 0.5000000
Bankura Mahato 0.5000000
&apos;s 斯大林 0.2608696
NULL 斯大林 0.0434783
Stalins 斯大林 0.0434783
purges 斯大林 0.1304348
, 斯大林 0.0434783
life 斯大林 0.0434783
Stalin 斯大林 0.4347826
bed 早睡 0.3333333
early 早睡 0.3333333
getting 早睡 0.3333333
Johnny 强尼 1.0000000
Stirling 机工 1.0000000
leading 科技处 1.0000000
to 才刚 0.1666667
use 才刚 0.1666667
or 才刚 0.1666667
materials 才刚 0.1666667
things 才刚 0.1666667
actually 才刚 0.1666667
bucks 公羊 1.0000000
the 电磁 0.0731707
electromagnetism 电磁 0.0487805
NULL 电磁 0.0243902
nowadays 电磁 0.0243902
electricity 电磁 0.0731707
, 电磁 0.0243902
electromagnetic 电磁 0.3902439
interact 电磁 0.0243902
electromagnet 电磁 0.0731707
induction 电磁 0.0243902
treating 电磁 0.0731707
magnetic 电磁 0.1463415
squeeze 死死 0.4000000
grip 死死 0.4000000
white-knuckle 死死 0.2000000
universal 蕴藏 0.0476190
the 蕴藏 0.4285714
NULL 蕴藏 0.1904762
potential 蕴藏 0.0476190
accumulation 蕴藏 0.0476190
that 蕴藏 0.0952381
reserves 蕴藏 0.0952381
something 蕴藏 0.0476190
EO 埃梅卡.奥卡福 0.5000000
Emeka 埃梅卡.奥卡福 0.2500000
Okafor 埃梅卡.奥卡福 0.2500000
throw 乱放 1.0000000
glasses 反射镜 0.3333333
reflective 反射镜 0.3333333
arrangement 反射镜 0.3333333
NULL 印迹 0.5000000
footprints 印迹 0.5000000
sparkle 闪耀 0.1000000
glow 闪耀 0.1000000
these 闪耀 0.4000000
NULL 闪耀 0.1000000
shiny 闪耀 0.1000000
hardly 闪耀 0.1000000
shines 闪耀 0.1000000
&apos;t 穴内 1.0000000
NULL 满了 1.0000000
Adria Ferran 0.5000000
Ferran Ferran 0.5000000
Goldilocks Goldilocks 1.0000000
magnolias 木兰花 1.0000000
Gayle 盖尔 0.2000000
Gell-Mann 盖尔 0.1333333
Gail 盖尔 0.4666667
Murray 盖尔 0.1333333
crazier 盖尔 0.0666667
NULL 照出 1.0000000
Magritte 马格里特 1.0000000
just 拨出 0.3333333
NULL 拨出 0.3333333
DARPA 拨出 0.3333333
NULL 诊疗 0.3333333
fixed 诊疗 0.3333333
afford 诊疗 0.3333333
through 挺过 0.4000000
got 挺过 0.6000000
consistent 久之 0.3333333
to 久之 0.3333333
got 久之 0.3333333
Markus 布鲁诺·朱桑尼 1.0000000
Denisovans 德尼柔 1.0000000
responsible 担 0.5000000
payload 担 0.5000000
NULL 把兰 1.0000000
Lufthansa 汉莎 0.5000000
does 汉莎 0.5000000
NULL 小数点 0.5000000
decimal 小数点 0.5000000
primordiale 原汤 0.2000000
soupe 原汤 0.2000000
soup 原汤 0.6000000
towpaths 纤道 1.0000000
NULL 不对头 1.0000000
generation 一代 0.5000000
. 一代 0.5000000
the 神力 0.0952381
spades 神力 0.0476190
very 神力 0.0476190
complex 神力 0.3809524
powers 神力 0.0476190
God 神力 0.2857143
. 神力 0.0476190
Woman 神力 0.0476190
reviewed 详阅 1.0000000
to 效劳 0.2000000
oblige 效劳 0.2000000
Holbein 效劳 0.2000000
lunch 效劳 0.2000000
buy 效劳 0.2000000
from 燧石 0.3333333
chert 燧石 0.6666667
90-degree 90 0.0156250
nineties 90 0.0156250
stop 90 0.0156250
NULL 90 0.0625000
90 90 0.7500000
90-minute 90 0.0156250
90s 90 0.0625000
degrees 90 0.0156250
Generation 90 0.0156250
90th 90 0.0156250
80- 90 0.0156250
NULL 泥 0.5000000
dairy 泥 0.5000000
parliament 主制 1.0000000
smoked 熏好 1.0000000
NULL 李文和 1.0000000
NULL 脱口 0.2500000
You 脱口 0.5000000
homegrown 脱口 0.2500000
yards 群下 1.0000000
NULL 馆长们 1.0000000
NULL 釐 1.0000000
NULL 闺女 0.3333333
daughter 闺女 0.6666667
hour 仅有 0.0250000
NULL 仅有 0.1000000
only 仅有 0.4500000
a 仅有 0.1000000
yet 仅有 0.0500000
microns 仅有 0.0250000
reallocate 仅有 0.0250000
200 仅有 0.0250000
have 仅有 0.1000000
in 仅有 0.0750000
few 仅有 0.0250000
NULL P—— 1.0000000
NULL 花药 0.5000000
anther 花药 0.5000000
to 搬去 0.4210526
haul 搬去 0.0526316
moved 搬去 0.3157895
. 搬去 0.0526316
moving 搬去 0.1578947
chattel 动产 1.0000000
the 永远 0.0035398
you 永远 0.0035398
, 永远 0.0017699
gone 永远 0.0017699
might 永远 0.0017699
ever-open 永远 0.0017699
could 永远 0.0053097
Day 永远 0.0017699
happily 永远 0.0070796
won 永远 0.0053097
always 永远 0.1079646
eternally 永远 0.0035398
Probably 永远 0.0017699
&apos;t 永远 0.0070796
be 永远 0.0318584
away 永远 0.0017699
forever 永远 0.1292035
remain 永远 0.0035398
ever 永远 0.0176991
NULL 永远 0.0389381
forget 永远 0.0017699
all 永远 0.0053097
never 永远 0.4247788
run 永远 0.0017699
&apos;ll 永远 0.0530973
will 永远 0.0867257
able 永远 0.0035398
going 永远 0.0194690
it 永远 0.0088496
eternity 永远 0.0070796
stay 永远 0.0017699
go 永远 0.0053097
Never 永远 0.0017699
sexy 永远 0.0017699
cruel 情面 1.0000000
retaliation 外族 1.0000000
NULL 闸门 0.8000000
shift 闸门 0.2000000
glad 从那时 0.0250000
during 从那时 0.0250000
NULL 从那时 0.0500000
since 从那时 0.1500000
that 从那时 0.2250000
from 从那时 0.1250000
then 从那时 0.1750000
and 从那时 0.2000000
&apos;ve 从那时 0.0250000
starts 不敬 0.0833333
forbid 不敬 0.1666667
rise 不敬 0.0833333
NULL 不敬 0.1666667
throughout 不敬 0.0833333
irreverence 不敬 0.4166667
tightening 系紧 0.1666667
seat 系紧 0.3333333
put 系紧 0.1666667
&#93; 系紧 0.1666667
&#91; 系紧 0.1666667
pointing 定点 0.1666667
NULL 定点 0.1666667
. 定点 0.5000000
accuracy 定点 0.1666667
NULL 三千多 1.0000000
diving 袭 0.5000000
bombing 袭 0.5000000
NULL 百分之百 0.0338983
percent 百分之百 0.4576271
% 百分之百 0.0169492
100 百分之百 0.4915254
NULL 罗莎 1.0000000
NULL 倒腾 1.0000000
NULL 叫嚣 0.2500000
franchise 叫嚣 0.2500000
aspires 叫嚣 0.2500000
defiance 叫嚣 0.2500000
compost 合肥 1.0000000
initial 房后 1.0000000
been Jasmine 0.2000000
Jasmine Jasmine 0.6000000
has Jasmine 0.2000000
tell 转告 0.6666667
your 转告 0.3333333
ESPYs 阿瑟·阿什奖 1.0000000
measured 量体温 1.0000000
the 喷口 0.0555556
sites 喷口 0.1111111
NULL 喷口 0.0555556
at 喷口 0.0555556
vent 喷口 0.4444444
407 喷口 0.0555556
vents 喷口 0.2222222
Glass Grass 1.0000000
than 成功者 0.5000000
overachievers 成功者 0.5000000
ex-rebel 反政府 0.3333333
rebel 反政府 0.3333333
Darfuri 反政府 0.3333333
unleashed 放领 1.0000000
gypped 上当 0.1428571
bait 上当 0.1428571
lie 上当 0.1428571
, 上当 0.5714286
NULL 穴居人 0.2500000
Neanderthals 穴居人 0.7500000
critical 临界量 0.5000000
mass 临界量 0.5000000
Go 米洛 0.0312500
gravy 米洛 0.0312500
NULL 米洛 0.0937500
Milos 米洛 0.0312500
: 米洛 0.0312500
Milo 米洛 0.7812500
Mr. 马奇 0.5000000
Titchmarsh 马奇 0.5000000
children 18.2% 0.5000000
die 18.2% 0.5000000
nose 鼹鼠 0.2000000
live 鼹鼠 0.2000000
mole-rat 鼹鼠 0.2000000
puts 鼹鼠 0.2000000
mole 鼹鼠 0.2000000
he 洞但 1.0000000
ourselves 寡不敌众 0.3333333
outnumbered 寡不敌众 0.3333333
found 寡不敌众 0.3333333
NULL 机械手 0.2500000
robotic 机械手 0.2500000
arms 机械手 0.2500000
manipulators 机械手 0.2500000
V-40 V-40 0.5000000
engine V-40 0.5000000
produce 琴弓 0.5000000
strings 琴弓 0.5000000
replenished 补足 0.2000000
historically 补足 0.2000000
, 补足 0.2000000
find 补足 0.2000000
needed 补足 0.2000000
wedding 结婚 0.0454545
marriage 结婚 0.0714286
NULL 结婚 0.0194805
did 结婚 0.0129870
SPLA 结婚 0.0064935
getting 结婚 0.0389610
, 结婚 0.0194805
marrying 结婚 0.0194805
married 结婚 0.4480519
if 结婚 0.0064935
newly 结婚 0.0129870
was 结婚 0.0064935
marry 结婚 0.0779221
got 结婚 0.0974026
get 结婚 0.0974026
banquet 结婚 0.0064935
weddings 结婚 0.0129870
Amos Amos 0.5000000
Winter Amos 0.5000000
Canaries 卡纳里亚斯 1.0000000
desert 土卫六 0.0312500
surface 土卫六 0.0625000
Airlines 土卫六 0.0312500
Titanian 土卫六 0.0312500
basically 土卫六 0.0312500
Titan 土卫六 0.8125000
animated 活化 0.3333333
stores 活化 0.3333333
NULL 活化 0.3333333
behind 正是 0.0068493
coordination 正是 0.0068493
&apos;s 正是 0.1232877
yes 正是 0.0068493
the 正是 0.0068493
NULL 正是 0.0890411
execution 正是 0.0068493
exactly 正是 0.0205479
are 正是 0.0479452
actually 正是 0.0136986
that 正是 0.1780822
we 正是 0.0068493
is 正是 0.1164384
found 正是 0.0136986
Keep 正是 0.0068493
it 正是 0.1095890
what 正是 0.1027397
siege 正是 0.0068493
part 正是 0.0068493
where 正是 0.0342466
right 正是 0.0136986
one 正是 0.0136986
&apos;re 正是 0.0410959
were 正是 0.0205479
&quot; 发财 0.0833333
thrived 发财 0.2500000
NULL 发财 0.0833333
thriving 发财 0.0833333
. 发财 0.0833333
rich 发财 0.3333333
coincide 发财 0.0833333
cuckoo 疯掉 0.1250000
NULL 疯掉 0.1250000
&apos;re 疯掉 0.2500000
. 疯掉 0.2500000
mad 疯掉 0.2500000
patients 心血管病 0.2000000
cardiovascular 心血管病 0.4000000
disease 心血管病 0.4000000
go 嗷—— 1.0000000
meal 寻食 0.5000000
find 寻食 0.5000000
base 佼佼者 0.1111111
smartest 佼佼者 0.1111111
NULL 佼佼者 0.2222222
of 佼佼者 0.2222222
. 佼佼者 0.1111111
muse 佼佼者 0.1111111
top-of-the-field 佼佼者 0.1111111
the 篱笆 0.0769231
windscreen 篱笆 0.0769231
NULL 篱笆 0.0769231
straw 篱笆 0.0769231
fence 篱笆 0.2307692
rows 篱笆 0.1538462
easily 篱笆 0.0769231
fences 篱笆 0.2307692
here 重力 0.0123457
defy 重力 0.0123457
NULL 重力 0.0493827
works 重力 0.0123457
force 重力 0.0493827
relativity 重力 0.0123457
zero-g 重力 0.0493827
gravitational 重力 0.0493827
zero-force 重力 0.0123457
. 重力 0.0246914
G 重力 0.0493827
gravity 重力 0.6543210
field 重力 0.0123457
flashlight 电筒 1.0000000
fields 黄豆田 0.2500000
. 黄豆田 0.2500000
soybean 黄豆田 0.5000000
removing 绷带 0.0370370
ACE 绷带 0.0370370
NULL 绷带 0.0370370
plaster 绷带 0.1111111
off 绷带 0.0740741
bandage 绷带 0.1111111
body 绷带 0.1481481
sling 绷带 0.1111111
in 绷带 0.0740741
bandages 绷带 0.2222222
ripping 绷带 0.0370370
billion 20亿年 1.0000000
the 何 0.0879121
NULL 何 0.1978022
of 何 0.0329670
Why 何 0.0329670
which 何 0.0769231
are 何 0.0329670
Lesbor 何 0.0109890
to 何 0.0769231
evidence 何 0.0109890
about 何 0.0439560
singular 何 0.0109890
geometrical 何 0.0109890
geometry 何 0.0329670
what 何 0.0769231
how 何 0.0439560
whys 何 0.0109890
? 何 0.0769231
inhabit 何 0.0109890
wherefores 何 0.0109890
cartoonist 何 0.0109890
why 何 0.0989011
panhandle 找些 0.1250000
looking 找些 0.2500000
for 找些 0.2500000
sticks 找些 0.1250000
some 找些 0.2500000
a 恒温器 0.3750000
controllable 恒温器 0.1250000
cryostat 恒温器 0.1250000
thermostat 恒温器 0.3750000
listen 才来 0.1666667
NULL 才来 0.1666667
for 才来 0.3333333
would 才来 0.3333333
Rounds Rounds 1.0000000
anymore 连光 1.0000000
the 帕戈 0.0344828
Galapagos 帕戈 0.8620690
rarest 帕戈 0.0344828
NULL 帕戈 0.0344828
Islands 帕戈 0.0344828
daisy 菊花 1.0000000
starving 饥肠 0.5000000
tempted 饥肠 0.5000000
sparkly 燕麦片 0.3333333
cereal 燕麦片 0.6666667
SAGES 外科 0.0067114
want 外科 0.0067114
expecting 外科 0.0067114
the 外科 0.0536913
procedures 外科 0.0134228
a 外科 0.0134228
NULL 外科 0.0671141
surgery 外科 0.0872483
terribly 外科 0.0067114
surgeons 外科 0.2080537
surgeries 外科 0.0134228
pioneer 外科 0.0067114
orthopedic 外科 0.0134228
surgeon 外科 0.3020134
script 外科 0.0067114
Archives 外科 0.0067114
heart 外科 0.0067114
neurosurgery 外科 0.0201342
surgical 外科 0.1208054
neurosurgeon 外科 0.0268456
colleagues 外科 0.0067114
Tucker Tucker 1.0000000
Cozumel 梅尔岛 0.5000000
off 梅尔岛 0.5000000
peeking 偷看 0.0909091
spying 偷看 0.0909091
NULL 偷看 0.1818182
spy 偷看 0.0909091
peek 偷看 0.3636364
, 偷看 0.0909091
peeked 偷看 0.0909091
design 对暗 1.0000000
NULL 枯燥 0.1923077
boring 枯燥 0.2692308
academic 枯燥 0.0384615
, 枯燥 0.1153846
unsexy 枯燥 0.0384615
dry 枯燥 0.1923077
escapes 枯燥 0.0384615
aspirational 枯燥 0.0384615
dull 枯燥 0.0769231
microseconds 微秒 0.8571429
a 微秒 0.1428571
NULL 1997 0.5000000
deliberately 1997 0.5000000
status 难住 0.3333333
. 难住 0.3333333
framed 难住 0.3333333
haul 读卡器 1.0000000
pollution 算车 1.0000000
1.2 一百二十万 0.5000000
nearly 一百二十万 0.5000000
delicacies 佳肴 0.1666667
way 佳肴 0.0833333
wonderful 佳肴 0.1666667
dish 佳肴 0.0833333
NULL 佳肴 0.1666667
morsel 佳肴 0.0833333
ways 佳肴 0.0833333
meals 佳肴 0.0833333
ambrosia 佳肴 0.0833333
NULL 查询卡 1.0000000
Penicuik 库克 0.3333333
Captain 库克 0.3333333
Cook 库克 0.3333333
out 取 0.0816327
the 取 0.0918367
NULL 取 0.1428571
you 取 0.0714286
names 取 0.0510204
name 取 0.0102041
off 取 0.0408163
we 取 0.0204082
take 取 0.2857143
took 取 0.1224490
finning 取 0.0102041
&apos;re 取 0.0204082
CI 取 0.0102041
takes 取 0.0204082
. 取 0.0102041
apart 取 0.0102041
weekend 进去 0.0031949
you 进去 0.0031949
anymore 进去 0.0031949
NULL 进去 0.0319489
add 进去 0.0127796
goes 进去 0.0159744
involvement 进去 0.0031949
come 进去 0.0191693
, 进去 0.0127796
put 进去 0.0638978
into 进去 0.0926518
got 进去 0.0127796
in 进去 0.2843450
went 进去 0.0351438
get 进去 0.0063898
. 进去 0.0415335
inside 进去 0.0415335
incision 进去 0.0031949
walked 进去 0.0127796
demeanor 进去 0.0031949
cells 进去 0.0095847
it 进去 0.1182109
go 进去 0.0670927
there 进去 0.0383387
inhale 进去 0.0063898
door 进去 0.0031949
Chechens 进去 0.0031949
stuff 进去 0.0031949
recirculated 进去 0.0031949
and 进去 0.0383387
learn 进去 0.0063898
victims 伤员 0.1818182
signature 伤员 0.0909091
NULL 伤员 0.1818182
grueling 伤员 0.0909091
wound 伤员 0.0909091
wounded 伤员 0.3636364
observe 有锝 1.0000000
213,000 21万3千 1.0000000
done 下模 1.0000000
sister 天真无邪 0.5000000
innocent 天真无邪 0.5000000
streaming 人流 1.0000000
11 9·11 0.2352941
/ 9·11 0.2352941
NULL 9·11 0.1176471
that 9·11 0.0196078
9 9·11 0.2352941
event 9·11 0.1176471
voice 9·11 0.0196078
1 9·11 0.0196078
Dana 丹娜 1.0000000
RCA 绝后 1.0000000
Pentagon 遍 0.0040650
hear 遍 0.0040650
researched 遍 0.0040650
shirt 遍 0.0040650
that 遍 0.0081301
, 遍 0.0040650
lots 遍 0.0121951
tried 遍 0.0243902
applicable 遍 0.0040650
reread 遍 0.0040650
embroidered 遍 0.0040650
once 遍 0.0121951
Nashville 遍 0.0040650
watched 遍 0.0040650
cross-country 遍 0.0040650
everything 遍 0.0040650
repeat 遍 0.0203252
again 遍 0.2723577
and 遍 0.0325203
over 遍 0.1341463
NULL 遍 0.1056911
time 遍 0.0203252
